/* Generated by Edge Impulse
 *
 * Permission is hereby granted, free of charge, to any person obtaining a copy
 * of this software and associated documentation files (the "Software"), to deal
 * in the Software without restriction, including without limitation the rights
 * to use, copy, modify, merge, publish, distribute, sublicense, and/or sell
 * copies of the Software, and to permit persons to whom the Software is
 * furnished to do so, subject to the following conditions:
 *
 * The above copyright notice and this permission notice shall be included in
 * all copies or substantial portions of the Software.
 *
 * THE SOFTWARE IS PROVIDED "AS IS", WITHOUT WARRANTY OF ANY KIND, EXPRESS OR
 * IMPLIED, INCLUDING BUT NOT LIMITED TO THE WARRANTIES OF MERCHANTABILITY,
 * FITNESS FOR A PARTICULAR PURPOSE AND NONINFRINGEMENT. IN NO EVENT SHALL THE
 * AUTHORS OR COPYRIGHT HOLDERS BE LIABLE FOR ANY CLAIM, DAMAGES OR OTHER
 * LIABILITY, WHETHER IN AN ACTION OF CONTRACT, TORT OR OTHERWISE, ARISING FROM,
 * OUT OF OR IN CONNECTION WITH THE SOFTWARE OR THE USE OR OTHER DEALINGS IN THE
 * SOFTWARE.
 */
// Generated on: 24.10.2022 11:35:11

#include <stdio.h>
#include <stdlib.h>
#include "edge-impulse-sdk/tensorflow/lite/c/builtin_op_data.h"
#include "edge-impulse-sdk/tensorflow/lite/c/common.h"
#include "edge-impulse-sdk/tensorflow/lite/micro/micro_mutable_op_resolver.h"
#include "edge-impulse-sdk/porting/ei_classifier_porting.h"

#if EI_CLASSIFIER_PRINT_STATE
#if defined(__cplusplus) && EI_C_LINKAGE == 1
extern "C" {
    extern void ei_printf(const char *format, ...);
}
#else
extern void ei_printf(const char *format, ...);
#endif
#endif

#if defined __GNUC__
#define ALIGN(X) __attribute__((aligned(X)))
#elif defined _MSC_VER
#define ALIGN(X) __declspec(align(X))
#elif defined __TASKING__
#define ALIGN(X) __align(X)
#endif

#ifndef EI_MAX_SCRATCH_BUFFER_COUNT
#define EI_MAX_SCRATCH_BUFFER_COUNT 4
#endif // EI_MAX_SCRATCH_BUFFER_COUNT

#ifndef EI_MAX_OVERFLOW_BUFFER_COUNT
#define EI_MAX_OVERFLOW_BUFFER_COUNT 10
#endif // EI_MAX_OVERFLOW_BUFFER_COUNT

using namespace tflite;
using namespace tflite::ops;
using namespace tflite::ops::micro;

namespace {

constexpr int kTensorArenaSize = 1104;

#if defined(EI_CLASSIFIER_ALLOCATION_STATIC)
uint8_t tensor_arena[kTensorArenaSize] ALIGN(16);
#elif defined(EI_CLASSIFIER_ALLOCATION_STATIC_HIMAX)
#pragma Bss(".tensor_arena")
uint8_t tensor_arena[kTensorArenaSize] ALIGN(16);
#pragma Bss()
#elif defined(EI_CLASSIFIER_ALLOCATION_STATIC_HIMAX_GNU)
uint8_t tensor_arena[kTensorArenaSize] ALIGN(16) __attribute__((section(".tensor_arena")));
#else
#define EI_CLASSIFIER_ALLOCATION_HEAP 1
uint8_t* tensor_arena = NULL;
#endif

static uint8_t* tensor_boundary;
static uint8_t* current_location;

template <int SZ, class T> struct TfArray {
  int sz; T elem[SZ];
};
enum used_operators_e {
  OP_FULLY_CONNECTED, OP_SOFTMAX,  OP_LAST
};
struct TensorInfo_t { // subset of TfLiteTensor used for initialization from constant memory
  TfLiteAllocationType allocation_type;
  TfLiteType type;
  void* data;
  TfLiteIntArray* dims;
  size_t bytes;
  TfLiteQuantization quantization;
};
struct NodeInfo_t { // subset of TfLiteNode used for initialization from constant memory
  struct TfLiteIntArray* inputs;
  struct TfLiteIntArray* outputs;
  void* builtin_data;
  used_operators_e used_op_index;
};

TfLiteContext ctx{};
TfLiteTensor tflTensors[14];
TfLiteEvalTensor tflEvalTensors[14];
TfLiteRegistration registrations[OP_LAST];
TfLiteNode tflNodes[5];

const TfArray<2, int> tensor_dimension0 = { 2, { 1,600 } };
const TfArray<1, float> quant0_scale = { 1, { 0.0042279413901269436, } };
const TfArray<1, int> quant0_zero = { 1, { 12 } };
const TfLiteAffineQuantization quant0 = { (TfLiteFloatArray*)&quant0_scale, (TfLiteIntArray*)&quant0_zero, 0 };
const ALIGN(16) int8_t tensor_data1[256*600] = { 
  -82, -66, -20, -95, -104, -60, 95, -34, 42, 24, 83, 23, 47, -38, -106, -82, -22, -121, 95, 86, -8, -69, -27, 57, -20, 99, -32, 36, -46, 60, 54, 38, 24, 20, 55, -115, -100, -53, -105, 116, 76, 39, -2, -90, -42, 54, 68, 33, 1, -61, -72, 41, -90, 6, 37, 68, 25, -44, 110, 55, 41, 0, 15, 99, -18, -72, -84, 42, -92, 50, 48, -116, -44, 105, -13, 34, 36, -121, -62, -105, 5, -24, -88, 62, -96, -93, -99, 9, -11, 5, 36, 112, 84, -77, -113, 8, 102, -15, -99, -10, -104, 8, -17, -38, -37, 9, -95, -41, 26, 64, -70, 82, -63, 58, -44, 22, -75, -72, -59, -46, 7, -9, 65, 72, 73, -33, 104, -40, 101, 11, -51, -4, 3, -82, -85, -43, -36, -40, 46, 9, -98, -85, 28, 38, -35, 64, -43, -110, 115, 88, 23, 72, -32, 46, -95, -72, 27, -77, 71, 33, -61, -30, 11, 7, -25, -14, -11, 24, -47, -39, -53, 67, -7, -29, 86, -104, -63, 101, 12, 104, -16, 27, -26, 35, -99, 79, -61, 13, 48, 44, 76, -66, 9, 17, 49, 15, -20, -80, 48, 110, -76, -52, 100, 100, 0, 4, -55, -3, 104, -102, -87, -12, 61, -96, -113, -112, 78, -1, -12, -14, 109, 64, -44, 61, -3, -16, 107, -28, 70, -30, -66, -82, 22, 65, -102, 111, 86, 53, 6, -40, 102, -40, 14, 96, 13, -72, -96, 50, -87, 15, 32, 50, -107, 118, -62, 116, -52, 62, -44, 2, 22, 73, 26, -117, 105, 16, -99, 89, 13, 79, -29, 71, -41, 100, 69, -19, -23, -102, -114, -20, 68, -48, 17, 36, -38, -71, -96, -11, 103, 62, -3, 113, 68, 101, 2, 23, -80, -100, 68, -112, 54, 44, 58, -96, 25, 52, 103, -7, 2, 105, 61, -51, -76, -84, -79, 87, -33, 26, 19, 96, 76, 58, 35, -57, -49, 20, 106, -79, 73, -1, 90, -59, -32, -12, -22, -49, 4, -67, 9, 68, 108, -3, 27, -59, -1, 106, -99, 56, -46, 11, -27, 98, 71, 96, 82, -18, 42, 49, 0, -115, 25, 106, 61, -19, 80, 85, 20, 63, 88, -87, -108, 95, -71, -110, -47, 99, -54, -39, -74, -98, 26, -12, -9, -101, -88, 20, -90, 98, -13, -12, 32, -10, -103, 9, 103, 63, -7, 24, 72, 116, -88, -3, -59, -72, -77, 26, 9, 12, -100, -63, -93, 121, -8, 67, -59, 17, 66, -28, 21, 108, 11, 103, 22, 8, -52, 16, -51, -45, -80, 115, 73, 38, -12, -118, -36, 92, 88, 93, 75, -112, -44, -56, -58, -73, -28, 100, 27, 51, 58, 18, 34, 60, -121, -3, -34, -67, 10, 56, -55, -82, 71, 58, 72, -109, -18, -93, -74, 11, 36, -73, -3, 16, -56, 2, -32, 31, -67, 36, 14, -39, -30, -1, 32, -31, -78, -105, 113, -95, 107, -110, -23, -40, 109, 42, 86, 6, -20, 12, 124, -64, -111, -68, 87, 92, 108, -14, -73, 110, -21, 16, 29, 91, -104, -65, 103, 56, -4, -114, -22, -19, 21, 74, 38, 60, -39, 3, 11, -89, 45, -57, -52, 27, 80, 8, 81, -3, -19, 111, 84, -9, 17, 31, -2, -59, 80, 3, -42, 70, -46, -90, -75, 83, 75, -102, -45, -22, -83, 82, -80, -86, 90, 112, 58, -51, -67, -68, -108, 48, 2, 22, -63, -78, -11, 57, 4, 28, 13, 32, 103, -67, 96, 64, 30, 54, -69, -81, -2, -66, 17, -118, 16, -31, 102, 108, -71, 48, 4, 85, 101, 94, 
  19, 26, 85, -2, 6, -45, -93, 113, 15, -63, 66, 99, -101, 91, 98, -83, -104, -84, 11, -70, -90, -39, -63, 75, 84, 56, -31, -74, -1, 100, -96, -25, 81, 91, -69, -79, 75, 30, -76, 31, 104, -44, -29, 26, -103, -12, 60, 77, 20, -89, 5, -41, -103, -89, 86, -52, 5, 85, 6, -23, -69, -11, -22, 99, -53, -42, -119, -100, -100, -94, -66, -54, 69, 80, 55, -18, 101, -36, 74, 89, 73, 79, 65, 69, 85, -69, -105, -32, -93, -58, 79, -16, -94, -76, 30, -69, 70, 2, -101, 87, -83, 7, -5, 109, -108, -22, 14, -49, 41, -112, -71, 46, 25, 52, -77, 67, -104, -57, -24, 42, -81, 97, -116, -102, 83, -45, -62, -88, 21, -50, 67, 15, 113, 15, 61, -54, -96, 25, -36, 21, -118, 85, -77, -27, -87, 62, 107, 106, -7, -42, -83, -19, -119, 85, 35, 44, 94, 53, -43, 18, 58, -115, -18, 81, 33, -48, 28, 79, -66, -71, -20, -69, -42, 89, 4, -117, 94, 33, -71, 6, -51, -80, 12, -119, -39, -68, -95, -44, 38, -44, 8, 17, 103, -101, 45, -80, -120, 59, 6, -88, 47, -14, -118, 89, -76, -113, 61, -43, -14, 88, -46, 5, -8, 57, 7, -35, -35, 37, -1, 83, 7, -70, -10, -76, -113, 40, -69, -75, 94, -22, 96, -43, -54, 2, -6, -54, -14, -32, -66, 56, -6, -76, 15, -93, 17, 104, 35, -29, 35, -16, -100, 33, 54, 73, 2, 102, 100, -9, 44, 90, 69, 12, 31, 64, -9, 100, 31, 38, -82, 34, 1, -60, -84, 101, 37, -122, 7, -113, 68, -2, 29, 32, -18, -21, -109, -111, 61, 78, 63, 69, -50, 116, 66, 10, 69, -36, -57, 89, -48, 64, -33, -76, 96, -27, 50, -23, 22, -79, -54, 43, -48, -103, 64, -107, 58, 69, -61, -82, 32, -43, 21, -7, -2, -115, -6, 13, 92, 20, -75, -122, 49, 82, 18, -34, -57, -38, -6, -13, -41, -73, 28, -23, 60, 6, -111, 41, 44, -87, 26, 83, 105, 86, -96, 38, -24, -53, -23, -32, 73, 56, -69, -9, 55, -103, 40, -83, 34, 70, 21, -53, 98, 92, 64, 63, -66, -119, -24, -20, -85, -40, -97, 2, 31, -49, -92, 100, 0, 31, -82, -12, -116, -8, -63, -88, -99, -45, -35, 26, -20, -41, 60, -40, -31, -80, -92, -111, 105, -7, 71, -76, -23, -14, -35, 21, -47, -43, -43, -120, -30, 58, -118, 28, 48, 16, -80, -8, -68, 75, -20, -28, 22, -47, -25, -122, -90, -107, 61, 12, 94, -65, 29, -75, -72, -57, -13, -76, 69, 27, 0, -83, 83, -80, -69, 48, -30, -95, -96, -92, -47, 39, 110, -15, -57, 13, -15, -47, -36, -23, 42, 0, -125, -1, -5, -93, -52, 55, -1, -83, 20, -106, 95, 86, -122, -116, -62, 56, 92, -107, -87, 13, -85, -91, 2, 48, 90, -30, 104, -60, -2, 65, -116, 41, -118, -85, 82, -24, 74, 87, 19, 90, -115, -50, -122, -18, 65, -23, -63, 77, 12, -84, 58, 78, -101, -44, 27, 74, -36, 105, -6, -107, 72, 24, -105, -120, -103, -67, 44, -5, -74, 21, 94, -50, -22, 40, 30, -121, 31, 25, -16, -39, 28, -112, -42, -66, -21, 58, -33, 79, -118, -57, 108, -116, 37, 29, 45, 76, -31, -20, -96, -34, 16, 111, -81, 29, -119, -80, 101, 7, -62, -82, 9, 35, -2, -37, 59, 111, 69, -92, 44, 81, -102, 50, -95, -42, 55, -46, 72, 4, 110, 58, 
  -3, 81, 1, -76, 10, 49, -69, -68, 0, 62, -91, 60, 34, -60, 106, 35, 55, -50, 46, -36, 70, -44, 98, 66, 13, -114, 43, 47, 40, 12, 121, -51, 92, 25, 95, 102, 4, 75, 39, -101, -58, -108, 9, -98, 104, -43, 57, 101, -30, -41, -84, -4, 79, -34, -57, 102, 102, 46, 76, -16, 57, 59, 51, 117, -105, 90, -107, -94, -73, -25, -122, -38, -95, -47, -12, 86, 95, -78, -104, -92, 30, 59, -116, -83, -73, -84, -85, 32, 10, 70, 43, -31, -57, -62, -66, -58, -78, -51, 56, 126, 15, -29, -101, -125, -36, 22, 14, 36, 81, 32, 110, 99, 96, -17, -54, 47, 46, -72, -1, -32, -113, 97, 92, 116, -104, 89, -6, -41, -17, 92, 20, -19, -5, -80, -32, 12, 40, 74, 104, -41, 90, 117, -85, -117, -85, -121, 89, 79, -88, -20, -114, -16, 4, 8, -75, -33, 102, -99, -101, 16, -62, -39, -55, 64, -5, 89, -49, -24, 63, -98, -51, 57, 71, -8, 117, -43, 50, -65, 39, 32, -13, 19, 3, 6, 86, 87, 49, 106, 20, 50, 78, -67, 9, -31, -37, -106, 64, 86, 50, 36, 53, -73, 27, -52, 64, 102, 87, -104, 5, -21, -2, 7, -14, -57, -93, -81, 7, 18, -10, -62, -71, 58, -82, 63, 67, 6, -14, 37, 89, -90, -2, 72, 28, 38, 112, -106, -83, 44, 36, 76, 120, 59, 46, 119, 22, -39, 65, -85, 39, 33, 56, 62, -69, 88, -30, 3, 3, 101, -106, 41, 91, -32, -22, 0, -48, -94, 9, -20, -104, -34, -66, -43, -67, 89, -123, -29, 76, -49, 11, 119, 71, -102, 61, -44, 2, 19, 89, -59, 87, 20, 44, 54, -80, -94, -25, 73, 52, 117, -87, -94, -54, 2, -82, -94, -67, -23, 64, -41, -72, -55, 22, 8, -104, -34, 68, -41, -65, 108, -15, -28, 100, -24, 32, -34, -114, -36, 19, 11, 45, -69, 89, -63, 97, 59, 57, 12, 112, -83, -41, -32, 84, 113, -15, -2, 43, 11, 5, -47, 37, -94, -15, 106, 58, -65, -15, 0, -14, -85, -113, -17, -24, 95, 97, 5, -95, -79, -49, 99, 87, -104, -80, 43, 52, -10, -36, -51, 112, -105, -8, 70, 115, 110, 91, -39, -50, -41, 92, 86, 92, 77, -20, -60, -44, 110, 58, -17, 47, 75, 83, -55, -72, -83, -66, 89, 3, 50, 50, -77, 84, -22, -98, -18, -36, -9, 53, 24, 17, -2, 91, -83, 108, 87, 68, -107, 55, 66, 17, 60, 9, -52, -70, -29, 14, 90, -7, -49, 24, -78, -97, 42, -114, -96, -100, 68, 67, 81, -12, 41, 46, 67, 85, 48, -102, -97, 67, -101, -77, -86, -30, 16, -91, 24, -90, 84, 33, 103, -7, -44, -103, 5, 43, -50, 35, -23, -1, -45, 6, 60, 10, -31, 18, -82, -58, -46, -92, 27, 108, 84, -27, -53, -79, 14, -97, 122, 102, 8, -84, -115, 40, -97, -101, 5, 120, 29, -84, 16, -103, 89, 64, 45, 104, 18, -35, 36, 96, -52, 87, 9, -115, 20, -87, -35, -91, 73, -54, 77, -62, -29, 119, 44, -66, -93, 65, -91, 39, 72, -41, 53, -83, -68, -21, 28, -32, 36, -70, 57, -95, 91, 73, -40, 97, 0, -58, -4, -19, -52, -102, -118, -101, 121, -37, -38, -63, -61, 35, 73, 76, -60, 111, 78, -87, -97, 109, 81, -39, 16, 11, -70, -117, 86, -75, 77, -13, 12, -8, 17, -88, 35, -29, 76, 87, -72, 74, 112, 23, 91, 105, 66, -67, -90, 
  -120, -5, -31, 85, 38, -61, 55, 108, 81, 59, -108, -83, -66, -65, 6, 51, 50, 115, 80, -20, -20, 66, 95, 23, 65, -120, -24, 33, 100, -28, 68, 70, -22, 33, 77, 83, -14, -29, -17, 106, -98, 36, -37, -18, 7, 17, -51, 90, -103, 54, 88, 58, -36, 83, 115, -32, 30, -34, 64, -30, -89, 84, -14, 77, 79, -62, -103, -94, -40, -57, -107, 84, -23, 68, -85, 75, 54, -3, 28, -91, 24, -51, 32, 99, -71, -24, -86, -95, -103, 60, -31, -47, -29, 37, -116, 65, -100, 51, 70, -48, -74, -96, 40, -84, 9, 5, 89, -44, -114, 0, 38, 108, 18, 104, -95, 11, -44, -33, 34, -111, -19, 41, 0, -98, 44, 92, 21, 86, -87, -64, 69, -103, 58, -114, -35, -65, -75, -100, 107, -48, 110, -37, 100, 21, 77, -22, 37, -38, 19, -36, -70, 21, 93, 14, 9, -30, -28, -94, 40, -41, -33, 117, 13, -88, 98, -66, -118, -85, -47, -115, -4, 52, 24, 104, -101, -110, -113, -3, -70, -6, 36, 7, 13, 13, 88, -106, -93, 99, -41, -48, 87, 19, 25, 3, 23, -8, -17, 5, -83, -61, 76, 7, -100, -43, -92, -78, 113, -5, -30, 54, -104, 77, 51, 85, 62, -9, 72, -99, 36, 107, -57, 36, -106, -31, 109, -32, -89, -40, -10, 60, -33, 62, 83, -85, -19, 0, 74, 2, 12, -111, 4, -90, -101, 26, -113, -27, -12, -103, 116, -104, -22, -34, 36, -77, 36, -41, 56, -77, -33, 70, -27, -114, -38, -16, 55, 52, -23, 45, 60, -14, 37, 74, 46, 43, 74, 108, 41, 94, 94, -24, -19, -54, 106, 68, 81, 103, -75, 18, 33, -44, 35, 75, 1, 53, -22, -95, -88, -75, 45, -73, 58, -33, 62, -52, -74, 111, 59, -51, -106, 95, -87, -39, 108, 36, 18, 7, -13, -102, -66, 74, -44, -46, -60, 15, -58, -54, 92, 6, -14, -54, -9, -94, -23, 98, -2, 50, 49, 113, 8, 106, -71, 74, 109, -110, -113, -32, -100, 43, -70, -22, 28, 94, 98, -21, 105, -35, -112, -30, -34, 69, 91, -5, -31, 59, -58, -64, 71, -30, -36, 45, 101, 18, 86, -52, -113, 3, -60, 0, -62, 66, 45, -101, 53, 50, -106, 15, 11, 114, -24, -83, -104, 117, -75, -19, 103, -20, -77, 107, -13, 34, -5, -6, -19, 49, 10, 7, -42, 95, -27, -49, -4, 64, -59, -100, -50, 61, -66, -31, -88, -109, -54, 105, 105, -97, 56, -97, -44, 56, -15, 6, -21, -101, 60, 55, -65, -106, -53, -58, 110, 110, 13, 81, -12, -52, 25, -89, -105, 20, -40, 60, -93, -6, -19, -93, 51, -54, -69, -41, 15, -83, 116, -52, 106, -20, -106, -29, -13, 5, 96, 47, -112, 112, -26, 41, 22, 64, 29, -94, -104, 107, 58, 97, 75, -85, 120, -56, -44, 28, -48, -23, -42, -47, 45, 34, -48, -18, 107, -18, -102, 122, -76, 36, -105, 71, 106, 108, -34, 72, -80, -12, 89, -107, 80, 14, 53, 97, 17, -8, -55, 32, 43, 53, 102, -61, -41, 76, -86, -97, 70, 50, 75, -38, 102, 113, 20, 119, -71, -2, 4, -101, 94, -12, 101, 90, 22, -16, 77, 38, 97, 6, 85, 103, 57, 14, 84, 100, -64, 77, 67, -103, -99, -34, 21, 28, 90, -108, 82, 53, -80, 94, -111, -66, -89, -4, -66, -52, -101, 23, -12, 105, -110, -34, 35, -95, -70, 0, -2, 93, 74, 119, 108, -92, 109, -25, -28, -70, 40, -61, 103, -86, 
  4, 105, 46, -82, -81, 112, 87, -26, -24, -72, -4, -39, -68, 110, 86, -39, -23, 17, -33, -84, -47, 52, -32, 111, -84, -32, 68, 87, -108, -84, -34, -112, 90, 55, -44, 73, -77, -31, 104, -64, -9, -113, 80, 14, 90, 24, -106, -98, -103, -40, -18, 98, 80, -62, -44, -104, 40, 105, -62, 71, -20, 34, -96, -18, -54, 28, -57, 45, -9, 38, 102, 61, 110, -97, -111, -111, -26, -55, -27, 61, -31, 10, -18, 48, -94, -31, 6, 45, 121, 88, -23, 72, 35, -82, 100, -9, 5, -27, -81, -81, 101, -64, 62, 118, 21, -98, -31, -12, -106, -36, 38, -88, 46, -40, -12, -67, -87, -105, 16, -105, 113, -89, 3, -9, -75, 101, 21, -28, -26, -110, -14, -24, -6, -32, 17, 85, -55, 99, 74, 56, -111, 68, -3, -36, -69, -42, 16, 39, -106, -47, 74, 94, -49, -87, -109, 39, 65, -84, -52, -83, 80, 112, 28, 116, 14, 54, -51, 71, -87, -91, 41, 61, -31, -17, -41, 60, 32, 54, 35, 7, 100, 31, 103, -4, 85, 8, -49, -55, -64, -67, -84, -50, 102, -115, -26, -73, -88, 40, 42, -40, 51, -1, 23, 66, 55, 51, -31, -98, 56, -85, -105, -54, -67, -15, -91, 40, 4, 46, 24, 8, 30, -108, 90, -100, 4, 38, -54, 46, -92, -97, -66, 26, -72, 6, -91, -53, 105, 56, 33, -25, -67, 66, -60, 65, 55, -5, 41, 18, -106, -58, 23, 102, -97, -57, 21, -68, 86, 34, -79, 23, -51, 54, -11, 104, 109, -89, 40, 35, -69, -26, 75, 50, -20, 9, -111, -108, -3, 50, -109, 88, 79, 95, 53, -105, 24, -53, -47, 17, -83, -114, -96, 60, 72, 44, 57, 23, -22, 36, -52, 83, -36, -108, -37, -27, -88, 15, -68, -85, -102, 74, -101, -15, 52, 57, -86, -90, -17, 15, -92, 42, 109, -70, 48, -43, 56, 97, -80, 74, 22, 49, -108, 44, -79, 113, 17, -56, -65, -18, -76, -96, -33, -100, -25, -89, -2, 107, -20, -17, -29, 2, 73, 105, -2, -67, 61, -55, 66, 5, 88, 64, 27, -64, -110, -2, -13, -91, -24, 65, 36, -21, -12, 116, -55, -92, -42, -88, -45, 27, -86, -50, -56, 50, -26, -43, 82, -34, 18, 36, -85, 32, -18, 13, 37, -23, -30, 50, 91, 64, 102, 56, -67, 51, 48, 64, 16, 107, 58, -6, -72, 12, 55, 101, -47, -95, -78, 85, -60, -33, -54, 79, 56, 97, -54, -48, 96, -73, 26, 41, 44, 61, -86, -107, 18, -9, -91, -7, 102, -41, 4, 92, 1, -37, 80, 54, -23, -29, -52, 17, 24, -60, 74, 63, -76, 97, -107, 39, -93, 43, 73, 6, -79, 37, -52, 85, -19, 40, -39, -20, 65, -68, -108, -5, -53, 74, 95, -72, -93, 22, -16, 78, 76, -54, 73, -6, 29, 47, -91, 111, 10, 55, -8, 14, 91, 86, 58, 63, 106, -89, 70, 22, 99, -16, 24, 5, 59, 107, 97, -88, -32, -9, 5, 19, 86, -99, -86, 0, -104, 54, 44, -91, 86, 10, -36, -65, -68, -55, 75, 7, -70, -74, -12, 47, 23, 98, 53, 50, -21, 15, 69, -79, 36, -86, -42, 84, -79, -40, -78, -92, 12, 33, -118, -23, -79, 14, -77, 26, -25, 4, 24, 60, -89, -70, -89, -86, -40, 96, 72, 4, -115, -48, -19, -61, 73, -76, 34, 62, 8, 99, -84, 39, 115, 14, -5, 25, 28, -95, -33, 69, 81, -23, -7, 57, 31, -109, -14, 2, 54, 3, 72, 108, 
  58, -97, -14, 65, 114, 24, -101, -80, -36, 20, -55, 37, -48, -85, 20, -70, -42, 18, -83, 84, 70, 109, -22, 83, 106, 89, -27, -10, -97, 83, -41, -35, 45, 46, -30, 11, -89, 107, 14, -40, -71, 26, -114, -80, 108, -28, -96, -2, 36, 81, 21, 81, 18, -22, -44, 22, -47, -106, 66, 57, 65, 73, -35, -29, 13, 93, -78, 37, 68, 2, 67, 96, 99, 21, -14, 4, -29, 3, -93, -3, 0, -55, 69, -80, -108, -111, -102, -45, -41, -30, 94, 66, 20, -43, -61, -89, 77, 5, -6, 35, -92, 81, -106, 98, 37, 2, 4, -86, -30, 14, -2, -76, -38, 87, -114, 116, 15, -91, -70, 9, 15, 10, -40, 49, 116, -104, 107, -3, -114, -18, -42, -102, 37, 67, 54, 68, -12, 52, 114, -38, 13, 107, -78, 111, -74, 74, 49, -48, 43, -69, -108, -97, 42, 74, 105, 47, -63, -73, 16, -27, -116, 1, -72, 60, 57, 26, 70, 62, 75, -73, -83, -78, 60, 39, 32, 72, 24, 99, 114, 10, -61, 106, -82, -11, -80, -72, 103, 90, 42, 62, 36, 96, -81, 93, 105, -36, -31, 37, -104, -59, -55, 91, -84, -31, -90, -42, 44, 61, -5, -22, -4, -101, -69, 79, -73, 21, 89, -108, -15, -103, 104, 78, 88, -82, 82, -90, -13, -37, -23, 89, 24, 21, 111, 5, -18, 107, -66, 106, 5, 1, 105, 30, 56, -102, 21, -38, 23, 109, -101, -94, 99, -15, 32, -20, -67, -68, -59, 35, -69, 42, -59, -15, 43, 79, 99, -21, 110, 78, 92, -95, -62, -116, -21, 40, -111, -48, 8, -102, -46, -74, 40, 115, -55, -75, 19, -13, 99, 1, 60, -65, -28, -65, -47, 105, 77, 102, 110, -102, 37, 21, -41, 13, 71, 5, -41, -18, -115, -83, 49, -93, -64, -23, -12, -65, 3, 12, -57, 113, 39, -43, 15, -93, -89, -45, -46, -69, -83, -43, -44, 98, 57, 62, -6, -49, 78, -90, -90, -88, -28, -16, 81, -11, -107, -58, -7, -57, 14, 116, -63, -111, 21, 83, -66, -81, -25, -82, 84, -11, -114, -78, 61, -57, 114, 19, 15, -58, -2, 92, 108, 30, 108, -68, -41, 101, 56, 67, 84, 73, -46, -3, 56, -42, 71, -86, -20, -31, 12, -27, 78, -111, 64, -62, -19, 97, 73, 63, 78, 9, -63, -19, -61, -104, -28, -94, 17, -27, -15, -61, -104, 68, 27, 62, -75, 98, -6, -3, -19, 38, -37, -79, -101, -86, 103, -39, -50, 67, 18, -79, 19, -7, -61, -52, -100, 35, 72, -67, 21, -62, -83, 91, -2, -16, 60, -101, -100, -79, 30, 114, 85, -74, 6, 9, -104, -98, 112, -109, -23, -15, 0, 67, -71, 116, 104, 78, 0, -6, -113, -24, -103, -91, -76, 98, 44, 8, -76, -65, 29, 78, 103, 86, -112, 29, -55, 79, -86, -80, 93, -17, -95, 57, -54, -90, 81, -87, 59, -85, 71, 52, -92, 33, 31, -43, -28, 22, 19, 85, 88, 89, -105, 10, 71, 64, -84, 10, -75, -111, 77, 15, -78, -41, -46, -1, 105, -50, -55, 30, 59, 96, -26, 50, -99, -86, 37, -17, 48, -57, -108, 72, 99, -89, 93, -33, 93, 101, -29, 111, -80, 52, 59, 86, 116, 40, 9, -61, 42, -52, 95, -54, 112, 23, -44, 16, -108, -102, 28, 109, 89, -68, 68, 14, 41, 104, -14, 81, 50, 111, 41, -80, 63, 58, -10, 52, 22, 39, 47, 35, 1, 0, -85, 96, 27, -112, 109, 3, -97, 18, -66, -56, -111, -66, 
  -83, -28, -103, -82, -58, -55, -27, 19, -123, -45, -33, -46, -6, -107, -52, -88, -59, -107, -50, 46, 50, 67, -80, -100, -9, -96, -35, 9, -104, -98, -26, 28, -28, -73, -113, -65, -95, 30, 62, -55, -51, 72, -66, 60, -115, -10, 86, -47, -94, -44, 54, -73, 75, 85, 50, 65, 92, 111, 39, 63, 18, 33, 66, 59, 26, -3, 29, -34, 109, 70, 107, -78, -92, 42, 94, 31, -40, 31, 39, 52, 22, 95, -63, 105, 111, 88, -2, 71, 77, 72, -106, -4, 10, -5, -68, -40, 23, -84, -5, -72, 25, -19, 51, 80, -122, 116, 106, -50, 48, -2, 74, -62, 36, 37, 9, 84, 8, -66, 61, 40, -2, -45, -53, 64, -107, -76, 54, -43, -52, 25, -37, -16, 91, 47, 23, -67, 18, -40, -91, 91, 0, -23, 85, 28, -29, 93, -88, 99, 5, -91, 57, 103, -111, -56, 9, -118, 23, 93, 109, -79, 73, 86, 22, -26, 51, 25, 34, 25, -64, 33, -22, -81, -40, -87, 69, -82, -1, -72, -68, 17, -60, -64, 25, 63, -44, -25, 22, 26, -28, 46, 12, -50, -58, 28, -42, 100, 80, -20, 62, 69, -87, 110, 11, 87, -76, 106, -53, 6, -53, -94, -8, -65, -23, 105, 0, 26, -44, -71, -109, -92, 66, 12, -54, 76, -106, -90, -78, 34, 6, 42, -49, -59, 26, 52, 45, 79, 90, -62, -10, -56, 113, -54, 17, -83, 116, 90, -105, -65, 28, -102, -90, -34, 55, -71, 107, -59, -80, 40, 116, -19, -78, -45, 52, 43, 76, -35, 98, 90, 95, -41, -46, -79, 54, 8, -62, -11, -98, -85, -70, 94, -1, -83, 34, 59, -68, 51, 53, 76, -98, -108, -57, 32, 32, -66, -79, 71, 6, -12, 97, 19, 11, 23, -20, 41, 35, 11, -68, -78, -93, -67, 25, -45, 102, -61, -72, -49, 42, 36, 47, 80, 91, 32, 78, 108, 94, 32, -119, -116, -96, -58, 49, 112, -123, -3, -31, -62, 8, -9, 9, -37, -69, -106, -25, 84, 17, 75, -36, -1, 18, 83, -118, 117, -79, -80, 21, 5, -56, -80, 1, -81, 66, 4, 105, 88, -55, 84, 58, 47, 62, -59, -66, -63, -29, 32, 18, -29, 59, -83, 21, -73, -121, 88, 41, 36, 109, 6, 91, -17, 18, 48, -25, -19, 86, -108, -93, 34, 34, -66, 79, -16, -80, -54, -108, 31, 3, 113, 52, -90, 45, 100, -4, 116, -47, 102, 49, 98, -122, -15, -32, -103, 113, -90, 45, -57, -54, 56, 89, -84, -113, -95, 108, 78, -62, -30, 47, -67, -106, -122, 32, 82, 108, 33, 73, 74, 27, -88, 91, -95, 49, 36, -100, -114, -65, -47, -58, 38, 90, -77, -78, -41, 43, -29, 55, 45, 68, -49, 58, 3, 10, -24, -67, 35, -97, 95, -23, 106, -44, 32, -10, 35, 27, -60, 63, 11, 2, 28, 0, 85, 76, -1, -102, 103, -13, 94, 89, -97, 104, -67, 5, -47, -89, -35, -15, -11, -50, 44, -34, 68, 85, -97, -7, 73, 21, -2, -113, -102, 19, -91, 49, 38, -42, 18, -97, -16, -107, -81, -76, 68, 80, 48, -32, 49, -75, 17, -77, -85, -44, 11, -36, 92, 92, 6, -86, 21, -3, 90, 107, 70, 85, 55, -92, -99, 97, 97, 35, 77, 97, -32, 66, -87, 94, 10, -62, 29, 78, -85, -101, 42, -14, 49, 56, 85, 57, 10, -115, 28, -58, 109, 93, 7, -27, 105, 26, -107, -90, -22, -59, -93, -56, 85, 105, 68, 103, 45, -93, 32, -9, -115, 62, 91, 
  -38, 51, 107, -5, -12, -102, 45, 66, 30, -8, -45, 100, -61, 72, 75, 40, 42, 42, 43, 61, 18, -72, -57, -57, -63, -27, 18, -13, 63, -48, -80, 27, 87, -17, -105, -30, 69, -104, 40, 95, -13, 91, 43, -29, 94, -3, -109, -30, -52, -17, 0, 105, -61, 90, 36, 101, 69, -8, -84, -106, 65, 104, 101, -59, -70, 73, -3, 47, -50, -44, -99, -74, 88, 88, 16, 12, 2, -63, -9, 21, 72, 108, -64, 112, 41, -112, 113, -97, -14, -28, 89, -90, 96, 101, 54, 99, -29, 96, 92, -57, -45, 59, 22, 79, -76, -108, 30, -57, -92, 24, 39, 111, 82, -103, -59, 6, -110, 82, -58, -91, 52, -3, 83, -77, 68, -35, 74, 85, -81, -53, 53, -52, -17, -100, 95, -85, 64, 99, 115, 23, 9, -114, 82, -2, -74, -40, -22, -41, 0, 34, -93, -52, 8, -112, 69, 62, -31, -99, -58, -56, -88, 5, -106, -23, -10, -90, 62, -36, 11, 64, 74, -53, -88, 73, 42, 98, 96, -14, -66, -13, 41, 9, 77, 99, -5, 46, 7, 85, 68, 98, -61, 6, -70, -103, 67, -85, -67, 45, -17, -110, -100, 79, -41, 94, 52, 91, 35, -46, -58, 66, 82, -102, -27, 55, 60, -85, 39, 89, -87, 1, -90, -30, -30, -55, -104, 82, 108, -110, -97, -25, 53, -108, 59, 96, -41, 73, 74, -50, 19, 36, 5, -110, -101, -6, -104, -57, 105, -82, 79, 108, -97, -64, 56, -98, 21, -116, 89, -92, -42, -53, -62, 96, -79, 32, -115, -38, -21, -2, -35, 111, 78, 100, 25, -32, 15, 14, 7, 103, 27, -39, 2, -90, 24, 97, -81, 108, 105, -94, -97, -60, 9, 32, -52, -107, 14, 6, 51, -51, -21, -34, 51, 112, -12, 61, -80, 20, 21, 55, 67, 80, 29, 29, 101, -77, -31, 94, -93, -61, 90, -58, 50, 12, 94, -22, -31, -109, 30, 89, 34, -101, -110, 82, 18, -35, -27, 43, 79, 15, 13, 85, 4, -63, 10, 104, 29, 37, 102, -30, 112, 3, 28, 96, -20, 89, -4, -88, 37, 47, 24, 76, -5, 26, -101, -29, -17, 88, 61, 46, -82, -114, -11, -64, 87, 95, -45, 71, -78, -72, -44, 42, -32, 99, 43, 90, -62, 14, 87, 95, 10, -13, -69, 44, 50, 89, 3, -87, 11, 67, 73, -70, 101, -15, 54, 74, 74, 86, -30, 30, -110, 85, -9, -26, 37, 100, 81, -82, -55, -110, 78, 18, -58, 112, -1, -90, -25, 26, 104, 73, -48, -51, -15, -104, -96, 22, -86, 48, 109, -89, -2, 58, 23, -31, -99, 15, -26, 20, 3, -37, 23, -59, -40, 75, -59, 10, 47, -81, 70, 35, 75, -61, -70, -88, -25, 31, 21, -10, -86, 47, -41, 50, 48, -81, 69, -38, 19, -18, -51, 71, -53, -32, -66, 96, -113, -102, -39, -40, -67, 7, 68, -90, -97, 89, -19, 10, -75, -1, 87, -99, -64, -68, -6, 107, 113, 79, -71, 113, 65, -3, -8, 101, 54, 23, -41, -97, -28, 106, -8, 90, 28, 45, 25, -44, -92, -56, -35, -20, -70, 106, 73, 92, 107, 87, 102, 69, -36, -104, 20, -95, -44, 101, 89, -13, 105, 63, -106, 89, 60, 112, -59, 20, 34, 72, -68, 24, -42, -92, -77, -108, 26, -111, -101, 35, -97, 113, 70, -38, 88, 91, 99, -47, -80, 71, 104, 46, 97, 106, -79, 12, -23, -45, -37, -106, -107, -77, 91, -6, 101, -27, -55, 28, 28, 20, -54, 53, 23, 23, -85, -41, -25, -108, 
  35, -24, -104, -90, -40, 98, 29, 92, -103, 100, 71, 99, 99, -18, -86, -22, -82, -111, -51, -63, 31, -105, 7, -113, 113, -14, -110, -35, -52, -54, 27, 8, -98, 12, 56, 89, -93, -109, -62, -89, 49, 51, -22, 76, 59, 64, -89, 66, 66, 8, -111, -54, 22, -61, -108, 69, 25, 73, -45, 40, 83, -12, -111, 17, -66, -71, 8, 14, 49, 85, -95, 112, -94, -82, 21, -60, 97, 57, -25, -2, -90, -54, 21, -15, 71, -29, 57, 53, -99, -74, 115, -43, 109, 19, -106, -32, 43, 60, -68, -41, -71, -6, -61, 61, -38, 86, -25, -1, -39, 9, 79, -72, -49, 82, -43, -17, 51, -41, 107, -106, 93, -91, -33, -44, -47, -110, -24, -29, 79, -42, -92, 38, -51, 87, 100, 81, -20, 76, -12, -13, -108, -68, 10, 109, -70, 49, -85, 102, 29, -41, 35, 48, 28, -87, -70, 53, -33, 95, 25, -66, 79, -10, 89, 75, 48, 99, -32, -16, 71, 112, 75, -105, -98, -113, -103, -55, 102, -83, -106, 16, -58, -15, -74, -7, -3, 18, -22, 10, 41, -94, -77, 39, 77, -27, -89, 1, -66, 67, 63, -1, 108, 31, -81, -13, -84, -55, 112, 92, 0, 35, -100, -48, 106, -91, 46, -32, -54, -95, -42, -59, 103, -20, 96, 63, 113, 68, 55, 36, -87, 50, -110, -30, -41, -38, 25, -36, -78, 79, -66, -37, -20, 96, 74, -17, 45, 7, 50, 79, -35, -92, -88, 15, 103, 63, -3, -87, 70, 92, 26, -74, -97, 42, 44, 75, 112, -82, 89, 95, -52, 0, 83, -43, -62, -85, -7, 61, 82, 10, -48, -31, 110, -87, -29, 114, -11, -53, -70, -9, 33, 79, 63, -97, 5, 38, -71, 96, 25, -113, 94, 74, 80, 92, 63, -101, -49, 5, -54, 70, -7, 38, -102, 19, 77, 2, -32, -23, -35, 79, 8, 80, -84, -103, 58, -85, -13, -63, 79, 70, 90, 20, -113, -48, 70, 85, 111, -6, 39, -46, -101, -6, 100, 102, 43, 20, 67, -8, -5, 52, -109, 72, -80, 115, 75, 8, -22, 64, 50, -71, -55, 0, 92, 53, 85, 92, 8, 64, 13, -40, 114, -22, 91, 109, 40, -70, -56, 15, -67, 48, 95, 41, 71, 61, -15, -87, 48, 34, 6, 32, -1, -110, -95, -7, 64, 97, -87, -39, 5, 28, 58, 89, 42, -90, -42, 64, -11, -59, 66, -60, 42, -90, 31, -106, -46, -66, -27, 35, 18, -96, 81, -81, -3, -35, 60, -101, 26, -31, 20, 48, -80, 28, -5, -75, 73, 31, 11, -106, -17, 79, -14, 45, -33, 92, 32, 113, -6, -44, -61, 111, -6, -1, 102, -30, -18, 97, 36, -105, 104, -96, -88, -80, -63, 9, 21, 114, -75, -87, -87, 12, -36, 72, -1, -29, -106, -87, 59, -29, 70, -85, -27, -76, -46, -60, 69, -88, 17, 42, -24, -3, 103, -99, -20, 36, -66, 58, 58, -64, 9, -40, 9, 107, 47, 27, 55, -14, 7, 109, 99, -76, -71, 113, -28, 7, -31, -89, 92, -33, -87, -24, 59, 31, -87, -14, 61, -42, 1, 84, 49, 16, -31, -17, 108, 114, 30, -34, 91, -46, 23, 1, 40, -107, -76, 62, -72, 109, -84, -23, -94, 66, -16, -72, -31, 25, -19, -36, 81, 33, -2, -64, -51, 21, 37, 10, -78, 92, 57, 29, -53, 19, 93, 17, -111, -10, -82, -95, -20, 5, -109, 86, -60, -67, 105, -29, 113, 82, 97, 80, -64, 76, -16, -16, -76, -42, -45, 109, -91, -59, -77, -32, 36, 1, 
  -9, -58, 29, -96, -75, 104, 113, 91, 103, -69, -2, -1, -26, -90, -70, -60, -5, 26, -20, 73, -32, -69, 107, -37, -81, -47, 45, -12, 108, -112, 72, -2, 28, -96, -34, 76, -74, -39, -28, 85, -103, 66, -38, 86, -63, -10, 20, 31, -8, -112, 108, 16, -20, 50, 120, -108, -70, -100, -84, -109, -72, 61, -63, 95, 37, -75, -69, -100, 82, 66, -57, -40, -40, -97, 36, 49, 67, -63, 45, -104, 75, -99, -17, 65, -95, -31, 28, -6, -75, -46, -96, 103, 104, 4, -92, 116, 60, -11, -90, -96, 26, 27, 34, -9, 0, 113, 44, 40, 89, -9, 51, 65, 65, 68, -72, -110, -20, 122, 56, 110, 46, -16, 1, -26, 99, 98, 1, -114, -1, -17, -57, -9, -69, -40, -89, -107, -90, 53, -28, -103, 31, -83, -117, 29, -31, 53, -92, 30, 50, 71, -62, 21, -44, -64, 11, -94, 22, 23, 27, -66, 65, 102, -36, -67, 53, -30, -53, 14, 47, 45, 5, 69, 96, 78, 28, 59, -46, 29, 67, 25, 47, -68, -77, -37, 107, 18, -34, 41, -76, 15, -49, 48, 95, -59, -29, 1, -89, 36, 64, -110, 93, -26, -44, -66, -112, -9, 66, -72, 85, -56, -42, 8, 21, -104, -42, -72, -97, -57, 41, 0, -21, 79, -54, -86, 56, -92, 23, 98, 3, 48, -63, -41, 56, 96, 107, 58, 112, -73, -61, -44, 5, 92, -80, -26, 79, -94, -100, 115, 35, -122, -103, -109, -112, -107, -100, -23, -40, -11, 85, 54, 99, 112, 53, -12, -48, -41, -27, 107, -87, 7, 67, 43, -71, -73, -45, -82, -90, 69, -96, -104, 3, -94, 109, 2, -56, -110, 11, 22, -11, 0, 111, 113, 70, -8, -55, -4, 111, -91, 41, -108, -72, -75, -115, 103, 59, -22, -18, -90, 112, -79, 38, 40, -27, 35, -29, 71, 77, 54, 95, -13, 79, 76, 37, 26, 99, -56, 77, -79, 102, -75, -80, 86, -108, -9, -45, 38, -84, -55, -57, 29, 61, 117, -70, 1, 56, 16, -31, -104, 48, 25, -106, -89, 64, -39, 73, 95, -29, -59, -20, 55, -6, 5, 58, 28, -75, -99, -39, -52, 43, -1, 78, -36, -69, 91, -7, 113, 102, 45, -17, 70, 116, 7, -39, -105, 107, 53, -99, -18, 82, 53, -13, 60, -41, -83, -25, 75, 88, -90, -82, 111, 52, 37, -37, 30, 108, -79, 64, 119, -12, 23, -77, -92, 120, 95, 47, 51, -79, 28, 114, -19, 99, -104, 1, 76, -80, -2, -111, 3, -6, 99, -53, 10, 21, -88, -49, 52, -56, 4, -70, 77, -7, -23, 53, -7, -73, -68, -94, -34, 61, -3, 32, 66, 50, 111, -100, 102, -62, -37, -71, -65, -8, 73, -53, -79, -92, 33, -21, -15, 14, 35, -100, -70, -20, 26, 46, -40, 104, -4, -60, -76, -105, 92, -3, -71, -48, 85, 4, 82, 12, -108, 83, -38, -64, 103, 91, 68, 33, 98, 40, 102, 99, 90, 117, 80, 105, -91, -78, 61, -51, -110, -76, 91, -52, -14, 81, 96, -81, 10, -66, 37, 57, -54, 89, -44, -57, -54, -60, -60, 109, -4, -84, -37, 65, -48, -70, -120, -88, -60, -71, -56, 75, 46, -96, 50, 45, -20, 118, 104, 13, 40, 86, -6, 42, -98, 62, -61, 29, -104, 74, -13, -96, -24, -85, 114, 35, -29, -93, -108, 0, -21, -99, 111, 83, -89, 105, 39, 1, 90, 2, 99, -71, -60, -66, 90, -103, -7, 33, 106, -53, -75, 80, -66, 41, 55, 112, 63, 85, 122, 1, -71, 
  -91, -84, 12, 27, 4, -83, 34, -38, -34, -52, -43, -65, -77, 29, 32, -105, 100, 11, -27, 5, 86, 25, 45, -19, 81, -99, -52, 82, 99, -21, -43, -114, 104, 38, 114, 77, 94, -13, 46, 58, 110, -54, -59, 74, -61, -86, -31, -111, 108, -101, -111, 33, 2, 12, 119, -27, -95, 1, -113, 112, -99, 98, 10, 84, 7, 117, 5, -63, 5, 53, -56, -100, 0, 82, -108, 9, 68, 40, -68, 16, -95, -82, -35, 3, -30, -103, -16, 68, 27, -58, -55, -46, 59, 108, 16, 66, -85, 62, 0, 4, 82, 1, 38, -38, -48, -48, 64, -22, 88, -50, 91, 39, 104, 56, 9, -52, -10, -51, -31, -49, 68, 58, -109, 73, -92, -23, -63, -75, 89, -78, -2, -25, 112, 86, -36, -80, 12, -7, -28, 105, 17, 55, 78, -32, 75, 11, 83, -69, -26, 22, -6, -83, 84, 24, -24, -94, 39, 16, 21, -101, -113, 99, -50, 97, 15, 56, 23, -32, -49, -10, -79, 83, 119, 114, -41, 69, 101, -25, -4, 116, 74, 15, 53, 67, 94, 54, 53, -102, -13, -116, -90, 43, -67, 34, -57, 40, 117, -106, 26, 6, 46, -58, -87, -80, 111, 116, -10, 14, -90, -33, -29, -32, -77, -10, 12, 99, 81, 68, 102, 64, -94, -12, 48, 18, -31, -17, -79, -91, 89, -56, -82, -1, 84, -103, -77, 54, -46, -89, -53, 118, 30, -7, 11, -95, 13, 71, 41, -97, 118, -19, -11, 101, 95, -65, 36, 24, -65, -67, -10, -72, -5, -109, 90, -25, 42, -73, 69, -52, 76, -8, -38, 19, 68, 103, -52, 37, -4, 93, -103, -44, -72, 84, -33, 16, 32, -82, -7, 90, -7, 1, -24, -19, -51, 115, -38, 94, 26, 70, 34, 15, 111, 48, -64, 62, 8, -110, 115, 29, -44, 83, -18, -75, 105, 44, 96, 103, -89, 64, 19, 110, 26, 43, 94, 67, -113, -84, 106, -74, -86, -7, 102, 30, -90, 100, -107, -32, 105, -70, 59, 29, -58, 42, 29, -27, 53, -91, 50, -41, 17, 38, 6, -95, 29, 55, 33, 102, 29, 89, -112, 105, -2, -65, -47, -88, 34, -54, -111, 58, -61, -90, -32, 44, 66, -27, 106, -47, 53, 39, 107, 47, -53, -5, -16, 74, -70, -111, 46, -62, -18, -10, 89, 94, 3, -39, -8, -62, -59, 5, -15, 53, 38, 103, -14, -105, 60, 11, -111, -80, 101, 48, -86, -71, 31, 53, -7, -62, -90, -52, 14, -53, -66, -34, -109, -115, -28, -44, -53, -16, -101, -110, -75, 7, 41, -62, -62, -54, -101, 73, 40, 21, -54, 94, 13, 108, 109, 33, 80, 46, -62, 108, 93, 58, 56, 17, -30, -23, -106, -67, -27, -54, -88, -110, 88, 65, 60, -111, -54, 83, 110, 11, 117, -47, -51, -14, -61, -64, -93, 91, 3, -95, -25, 94, -46, -96, 72, -110, -3, -31, 91, 44, -92, 23, 60, 33, 53, 101, 63, -33, -85, -48, -31, -44, 59, 74, -61, -59, -105, 103, 77, -92, 79, -53, -15, 53, -27, 34, 14, -101, -23, -42, -36, -41, -96, 114, -113, -24, -65, 91, 47, 114, -79, -85, 62, -77, -64, -89, -49, 93, 31, 87, -100, -15, -36, 29, 104, 93, 78, 74, -30, -76, -29, -93, -103, -56, 13, -6, 63, 39, 71, -76, -78, -98, -30, 102, -1, 87, -68, 2, 60, -58, -30, -14, 17, 93, 84, 3, 9, 31, 26, 11, -69, 60, -3, 81, 69, 13, 56, -31, -83, 29, -85, 8, 27, 52, -13, 35, -2, -114, 45, 118, 
  99, -53, 4, 64, 60, 7, 10, -8, 76, -50, -77, -5, 107, -59, 49, 97, -107, 64, -54, -35, -100, -25, 83, 16, -29, -81, -29, 45, 4, 6, 114, 106, -25, 36, -55, 54, -88, 14, -41, -96, 110, 14, 86, 33, 95, -27, -36, -118, 100, 115, -10, 110, -58, 30, 79, 97, 24, 109, -97, -26, -68, 15, 43, -21, -73, 80, -47, 112, 112, -20, 83, -18, 71, -38, 17, 30, -42, 93, 71, -70, 42, 50, -20, 52, 38, -69, -43, -117, -55, -56, -112, -18, -104, -51, -33, 57, -15, 14, -98, 41, -103, -44, 30, -111, 101, -98, 15, 16, 44, 105, 102, -23, 38, -31, 43, 0, -99, 17, 116, -98, 1, 11, -42, -88, 104, 9, -78, -53, 88, -66, -110, -25, -20, 118, -91, 31, 50, 54, -57, 88, 103, 37, -107, 42, 13, -12, 41, -64, 24, 104, -5, 11, -17, 103, -114, 66, -82, 38, 63, 82, 103, 38, 104, -62, 22, -79, -40, -93, 31, 6, 80, 9, -28, 93, 106, 73, 67, 40, -5, -84, -33, -95, -66, 77, -3, 105, 9, 49, 97, 66, 70, 83, -57, 80, 68, -31, -34, 2, -74, 101, 71, -46, -116, -70, -38, 11, 54, -70, -61, 68, -97, 53, 1, -19, 12, 8, 63, -38, -23, 79, 85, 48, 80, 2, -7, -29, -19, -38, -64, -96, 0, -2, 14, 44, -42, 10, 79, 96, -103, -14, 20, -58, -10, -66, -100, 99, -13, 76, 18, 57, -37, 89, -64, 84, 33, 31, -111, 16, 100, -114, -9, -101, 25, 92, -22, -38, -39, -1, -81, 11, 89, -9, 54, 109, 4, 43, -64, 87, 84, -15, 110, -62, 12, -89, -47, -63, -38, 63, 12, -83, -36, -86, 5, -110, -98, 81, -110, -30, -88, -16, 82, -5, 12, -61, -66, 16, 87, -94, 64, -23, -15, -56, -79, 72, 28, -48, 77, -78, 0, -53, -29, -65, -65, 93, 49, -53, -50, -75, 109, -76, 107, -105, -78, -73, 104, -21, 61, 101, -115, 29, 7, 81, -110, 22, -59, 100, 35, -85, -22, -11, -82, 76, -64, 92, -103, 108, -105, 6, -9, 6, -37, 17, -10, 59, 71, -3, 38, -112, 85, -1, -103, -18, 84, -27, -112, -14, -88, -73, -73, 83, 108, 98, -77, -7, 93, -101, -68, -27, 24, 93, -52, -32, -94, -96, 37, 103, -44, -112, -29, 69, 26, 33, 108, -88, 43, -45, -25, 24, -47, 44, 76, -18, -79, -3, -105, 82, -69, -31, -19, 2, -12, -86, 10, -83, -101, 39, -42, 27, -77, 96, -81, 110, -94, 75, -8, -71, -33, 35, -59, 108, -29, -68, -89, 93, -11, 9, -36, 105, 84, -15, -21, -22, 26, -44, 113, -86, 40, -69, -102, 19, 69, -71, -13, -1, 106, -57, 7, 65, 25, 2, 65, 3, -109, -30, -106, -58, 81, 94, 103, 49, -2, -35, -4, 97, 50, -11, -52, 84, -94, 61, -106, -117, -79, 89, -105, 60, -64, -79, 25, -27, -71, -65, -98, -13, -51, 88, -53, 72, -28, 51, -63, -52, 104, 119, 84, 59, -62, 3, 27, 72, -71, -100, 38, 9, -6, 6, -67, -56, -45, -21, -98, 55, -46, 110, 9, 95, -65, -72, 71, -37, -66, -92, -44, 90, -10, 56, -110, 70, -89, 30, 13, 105, -49, -50, -38, 48, 42, 49, -71, -22, -67, -69, -2, 23, -29, 14, 63, -4, 67, 31, -96, -107, 105, 106, 33, -106, 98, -89, -107, -109, 25, -92, 75, 82, -26, -55, 71, -108, 83, -18, 17, 1, -20, -90, 52, 80, -44, -84, 63, -13, 
  50, -50, 97, -3, 85, -31, 71, -84, -57, -57, -77, -67, 82, -101, -115, 111, -31, -23, -15, -44, -77, 5, 98, 75, -62, -97, -65, -35, -40, -101, 20, 71, 101, -47, 52, 57, 71, 55, -62, -106, 68, 105, -37, 98, -74, -80, -58, 8, 8, 5, -23, 108, 17, 85, 46, 34, 43, -101, 10, -97, 47, 107, 69, -43, -108, 98, 51, -41, 25, 82, 94, 32, 25, -9, -81, 31, 51, -72, -41, 3, 43, -17, 95, 60, 69, 95, 3, 109, -41, -111, -67, 76, 98, 87, 28, -91, -109, -116, 59, -87, 0, 97, -35, -23, 3, -16, -11, -55, 80, -91, 15, 78, 0, -49, -65, 12, 23, -81, 54, -61, 72, 92, -81, -13, -76, 7, -22, -61, -62, 101, 39, -4, -55, 73, -21, 11, -10, 93, 53, 81, -99, 67, 68, 56, 37, 87, 110, -28, 63, 89, -52, -16, 48, -2, -70, -93, 18, 61, -88, -20, 19, 37, 91, 80, -59, -110, 79, 78, -89, -61, -49, 71, -124, 82, 84, -47, -69, -99, -27, 56, 75, -107, -94, 42, 62, 102, 69, 71, -15, 65, -43, -114, -102, 104, 103, 79, -101, -67, -54, 76, 4, 1, -80, -61, -102, 46, -17, -98, 89, -78, 60, 55, -58, -54, 93, -13, 106, -21, -55, -58, -10, 37, -14, -66, -102, -92, 3, -7, 16, 52, -109, 55, -99, 80, -92, -21, 107, 98, -112, 83, 54, -57, 102, -67, -45, 51, -4, -99, 6, 75, 52, 104, 76, 3, -97, 98, 110, -42, 50, -27, -92, 81, 28, 1, 90, 0, -80, 6, 63, -84, -110, -29, -61, 53, 47, -88, 19, 33, 80, 107, -42, -113, -65, -7, -71, 37, -30, -57, 22, -15, -109, -52, 17, 26, -4, -54, -16, -88, 106, 7, -103, 19, -51, 28, -17, 39, -91, 50, -111, 12, -96, 71, 83, 113, 70, -47, 36, 37, -1, 98, 39, -69, 33, 21, 94, 61, -36, -4, -22, 17, 56, -29, -27, -11, -61, -59, -83, 28, 20, -24, 4, 35, 68, 104, 100, 10, -76, 69, 45, 58, -63, 11, -117, -86, -79, -68, 58, 39, 18, -28, -23, -29, 86, 46, 107, -81, -63, -100, 42, -32, -96, -25, -75, -100, -58, -74, 66, 104, -32, -69, -41, -86, 14, -41, -1, -66, 53, -94, 101, -104, 97, -91, -43, -96, -94, 26, 4, -28, 12, 43, 98, 45, 23, 105, 69, 8, 61, 34, -13, -35, 80, 31, -33, -68, -11, 36, 20, 96, -71, 103, -15, 120, 6, -16, 94, 95, -101, 98, 21, -73, -54, -33, -93, 46, -69, 22, 62, -69, -47, 71, -83, 37, -79, 7, -39, -6, -106, 21, 43, 92, 123, -95, -57, 123, -10, 28, -27, 76, 44, -97, -42, -58, -40, -91, -37, -34, -112, -109, 35, 65, -53, 96, -96, -26, 19, 27, -28, 37, 72, 33, 104, -5, 95, 91, -30, 113, 18, -10, 6, -42, 50, -23, 50, 31, 112, -106, -104, 90, 13, -111, -40, 97, 102, 24, 83, -102, 114, -47, -13, 111, 35, 42, 113, 53, 24, 40, 98, 63, 47, 11, -83, -55, 83, 37, 65, 92, 73, 63, 30, -110, -114, 39, 9, 86, -84, 76, 59, -31, 84, -72, 81, 19, 54, -97, 114, -61, 103, 3, -76, -4, 41, 33, -40, 71, 86, -48, 96, -32, 29, 84, 58, 12, -105, 108, -7, 21, -34, 94, -7, 13, 66, 100, -67, 42, -34, -10, -35, 72, -16, -46, 0, -76, -99, -38, 78, 35, -20, -90, 37, -41, 93, 74, 50, -31, 26, 74, -97, -57, -43, 92, 
  18, -9, 13, -49, 72, -5, 84, 31, 75, 67, 51, 111, -79, -90, -89, 104, 54, 80, -8, 47, 22, 47, -59, 48, 96, 69, 109, 65, -40, -73, -93, 13, 26, -101, 29, 102, -53, 83, 100, 117, 39, 60, 18, -22, -102, -25, 75, -62, -92, -92, -48, -68, 104, 76, 24, 10, -91, 73, 38, 22, -69, -15, -41, -40, -62, -14, 50, -37, 108, -59, 108, 58, 75, -112, -48, 87, -26, 59, 98, 13, -103, 30, 73, 109, -86, -105, -69, 112, -102, -77, -75, -69, -41, -67, 44, 95, 19, -64, -30, 52, -77, -10, 45, 3, 75, -3, -107, -77, 113, 14, 55, -76, -78, 82, -91, 24, 63, 32, -85, 43, -28, 64, -89, 60, -108, -29, 45, 95, -103, -36, 96, -104, -106, -87, 45, 101, -40, -12, 6, 68, 109, 19, 73, 10, -12, -6, -54, 94, -58, 2, 32, 30, 49, -7, -99, -40, 3, -108, -67, -113, -91, -41, 80, -88, 88, 42, 23, 17, 34, 3, 14, -43, 16, -70, -56, -21, -2, -62, -31, 0, 8, 29, -120, 49, -34, -116, 53, 10, 29, 66, 60, 14, 88, -32, -4, -9, -35, -5, -84, 74, -6, 18, 93, 77, 59, -9, -90, -80, 45, 105, 52, 85, 73, -80, 55, 23, 15, 65, -19, 78, -79, -54, 84, 51, -46, -34, 110, -15, -39, 54, -96, -103, 43, -96, 108, -65, 59, -52, -100, -10, -59, 21, 62, -12, -101, -93, 9, -64, 112, -36, -111, 51, -42, 16, -23, 22, -39, 12, 118, -50, 0, -64, -49, 11, -38, 80, 54, 100, -87, 16, -51, 95, 78, -111, 88, -98, -29, 27, -29, -93, 33, -84, 89, -18, 108, 12, -22, -8, -8, 4, 5, 110, -94, 62, -46, 75, 79, 106, 92, -18, 86, 57, -97, -103, 9, -109, -31, -95, 49, -101, 72, -76, 59, -31, 84, -29, -117, 104, -77, 106, 91, 42, -84, 20, 106, -103, 15, -48, -25, -74, -24, 44, 89, -91, 22, 101, 7, -102, -91, 77, -111, -103, -11, 16, 61, -21, 54, 47, 51, -30, -84, 108, 55, -6, 80, -116, 70, 52, 4, 94, 11, 93, -92, 87, 11, -24, 108, -19, 97, 98, -59, -105, 92, -59, -116, 69, -59, -105, -63, 32, 104, -7, -65, -83, 28, 95, 65, 108, -116, 63, -113, -18, -91, 66, 70, -1, 116, -16, -72, -30, 90, -5, 109, 63, 79, 74, 48, 49, 80, -44, 10, 94, -19, -115, 7, -47, -117, 29, -71, -22, -102, -119, -104, -8, -21, 90, 35, -81, -45, 58, 12, -92, -77, -17, 30, 117, 55, 52, 115, 41, 110, -78, -20, 20, 15, -91, -117, -10, -29, 0, 85, -64, 110, 86, 16, -94, -28, -35, -75, -44, 34, -37, 76, -89, -34, -5, -74, 109, 78, 63, 44, 110, -47, 30, 110, 99, -87, 55, 4, 42, 115, 101, -8, -83, -46, 48, -51, 22, -2, 98, 4, -85, 44, 20, 109, 84, 91, 51, -77, 35, -28, -80, -112, -21, -35, 105, 58, 45, 102, 61, -94, -82, -54, -72, -35, -1, 78, -48, -2, -69, -30, -109, -23, 76, -62, 109, 57, -91, 24, -90, 33, -51, -27, -113, 97, -11, 66, -106, -41, -44, -108, 57, 80, 105, 36, 81, -25, -101, 78, 7, 65, 76, 3, 19, 63, -62, -29, -88, 102, 61, 20, -106, 28, -93, 76, 94, -105, -18, 106, -81, 72, -89, 36, -70, -82, 109, 9, -33, -109, 37, -9, -99, 66, 107, 82, 98, -87, -73, -87, -45, 42, 38, 17, -12, -97, 51, 36, 100, 68, -93, 
  -68, 97, -56, -72, -96, -108, -98, -43, -24, 56, -66, -58, 32, -78, 42, -34, -56, -18, -87, -87, 52, 35, -81, 92, 6, 101, -7, -67, 25, 108, -94, -112, -56, -60, 67, -103, -92, -60, -28, -30, 3, -105, -10, 47, 32, 4, 1, -64, 53, -52, 97, -32, -41, 24, 83, -96, 8, 26, -20, -20, 28, -26, 111, 4, -40, -23, -112, -65, 14, 100, 48, 67, 63, 71, -89, 26, -107, 87, -71, -82, -10, 13, 12, 36, -24, 60, 97, -54, -54, 105, 88, 107, 28, 12, 103, -81, 78, 94, 39, 45, -64, -47, -32, 30, 113, 11, -13, 92, -92, 32, 62, -111, 86, 23, 115, -115, 21, 12, 48, -77, 72, 0, 89, -102, -73, -30, 90, -57, 0, 13, 30, 107, -103, 5, -27, 12, -50, -104, -109, 78, -107, 77, 61, 33, 27, -71, 115, -76, -101, 106, 84, -88, 38, 45, 83, -55, -104, -60, 71, -95, -18, 99, -65, -60, 18, 89, -63, 115, -58, 45, -10, -50, 65, -40, 61, 94, -58, -30, 80, 93, 91, -7, 111, 72, 113, 73, -97, -31, 48, -50, 83, -76, 82, 37, 85, 31, 3, -74, 116, 59, 1, 33, 61, 61, 14, 13, 44, 65, 24, 7, 38, 13, 58, -70, 92, -44, 19, -26, -60, -66, 93, 46, -76, 27, -30, 90, -49, 34, 51, -46, 114, 94, -51, -24, -24, -30, 6, 36, 48, -53, -109, -102, -102, 55, 103, 89, 77, -4, 91, 21, -60, 4, -36, 37, 80, -91, 42, -16, 9, 54, -4, -51, 69, -14, 110, 34, 50, -29, 56, -64, 6, -2, 114, 116, -3, 16, -28, -18, 31, -107, -114, 72, 2, -91, -40, 6, -46, -36, 78, 110, 98, -72, 45, -26, 75, -32, 31, -96, -53, -5, -35, -51, -66, 48, 24, 92, 58, -79, -33, -50, -41, 11, -46, -54, 35, -66, 98, 25, 16, -16, -20, 101, -74, 96, 58, -34, 41, -94, 34, -6, -78, -25, -52, 98, 74, -1, -43, -29, -51, 105, 34, 31, -14, 54, 78, -7, -94, -17, 55, 71, 33, -14, 81, 78, 51, 21, 13, 5, -37, -93, -49, -38, 113, 34, 11, 115, 89, -50, -79, -97, 44, 72, -103, 75, 14, 57, -94, -21, 73, -24, -82, -70, 23, -10, -28, 3, 66, 17, -115, 48, -94, -10, 15, -35, 111, 98, -97, -24, -67, 79, -109, -46, 8, -13, -88, -103, 20, -19, -69, 65, -64, 23, 70, 2, -116, 11, 80, 4, -50, -41, 14, 21, -41, 78, 13, -13, 89, -60, -32, -73, 80, -18, 45, -18, -20, -4, -46, 62, -32, 61, -57, 79, 95, 59, 48, 28, 2, -6, 92, 54, 16, 63, -104, 104, -94, -113, 67, -113, 115, 90, 47, 105, 76, -82, -43, -102, 45, 74, -34, 87, -35, 85, -5, 110, -21, 75, -18, -104, -23, 84, -15, -7, -76, -74, 32, 98, 15, 16, 111, -102, 76, -80, 75, 15, 95, 113, 20, 109, -70, -98, 23, -72, 14, -113, -98, 52, 112, -4, 78, -53, 52, -45, 43, 71, -73, -23, 7, -46, -21, -98, -40, -36, -43, -22, 101, -96, -24, -73, -103, -68, -9, -105, -24, 111, 23, 31, -111, -49, 33, -94, -96, 114, 107, 59, -107, -74, 0, -93, 105, -111, 48, 96, -102, 1, 94, -98, -46, -85, 52, -75, -39, -10, 3, -88, 78, 12, -24, 60, -100, -109, -16, 106, 26, 114, 108, -63, -61, 57, 12, -112, -1, -55, 26, 62, 14, 34, -3, 100, -32, -8, 0, 72, -101, -18, 63, 99, -62, -59, 68, 87, 
  -71, -78, 80, 5, 81, -8, 43, -103, 48, -115, -80, -113, -44, 7, -116, 115, 27, 112, 44, 86, -99, -38, 28, 115, -104, -44, 40, 90, -36, -103, 81, 57, -16, -67, -107, -75, -76, 112, -54, 81, -36, -13, 81, 27, 107, -88, 72, -16, -79, -105, -82, 36, -113, 69, 74, 94, -21, -105, 21, -70, -95, -2, 68, -36, 69, -5, 109, -36, -38, -111, 14, -101, 93, -54, 37, -60, 6, -35, -97, 82, 93, 36, 64, 21, 70, 0, -37, 60, -42, 48, 71, -107, 42, 107, 32, 8, 104, 4, 94, -28, -59, 97, 81, 50, -98, 102, -21, 116, -58, 72, -93, -87, 16, 96, 90, 96, -3, 68, 12, 55, -63, -70, -63, -45, 12, 19, -87, 12, -73, 4, 66, -23, 68, 19, 62, -72, -30, 96, -95, 34, 3, -18, 71, 96, -91, -102, -34, 36, 107, -99, -12, -115, -83, -103, -72, 58, -19, 7, 38, 54, -42, 64, -104, -115, 80, -38, -24, 69, -49, 15, -93, -66, -22, -47, -109, 75, -18, -29, -17, -68, -81, 105, 5, 38, 19, -60, -87, 61, 96, -104, 18, 15, -87, 85, -103, -90, 105, 105, -2, -107, 16, -44, 95, 116, 61, 19, 35, -76, -33, -66, -115, 114, 54, 34, -23, 22, 48, -44, -99, 109, -59, -91, -26, 76, 110, 75, -110, -20, 4, -26, -34, -80, -5, -73, -111, 20, -104, 39, 5, -17, -101, 74, 87, 2, 99, -45, -69, 1, -69, -8, 101, -68, 3, 116, -100, 113, -50, 84, 15, 8, 58, 57, -44, 58, 73, 18, -55, 38, -19, -55, -16, -60, -37, -109, 7, -112, 80, 23, 66, -84, -22, 25, 106, 31, 81, -87, 42, -68, 96, 99, 73, 107, -77, -4, -75, 5, -39, -5, 35, 55, -89, -57, -51, -102, 0, 70, 15, 66, -65, 46, -53, -24, -34, -84, -30, 74, 3, -2, -113, -87, -49, 24, -63, 42, -79, -85, -12, -51, -33, 53, -108, 31, -62, -42, -65, 29, 65, 54, -7, 76, 21, -27, -16, 18, -41, -24, 18, -19, -59, -85, -89, 86, -29, 55, -67, 84, -10, 12, 34, -77, 96, -59, -13, 36, -46, -45, 104, -48, 94, 21, 39, 54, -35, -14, 57, -110, -66, 89, -113, 115, 54, -104, -42, 18, 93, 65, 85, 65, 100, 74, -80, -12, -53, 63, -49, 27, 44, 55, 28, 20, 83, 7, 45, 91, -67, -42, 115, -69, -13, -56, 98, 67, -71, 71, -15, -8, -7, 58, 45, 20, 107, 51, 110, -90, -58, 50, -92, 98, 14, 29, -11, -67, -74, 114, 72, 28, 60, 60, 91, 85, -115, -15, 88, 9, -40, 21, -24, -79, -41, -99, -41, -12, 7, -43, 84, -97, -69, -51, -95, -114, -77, -82, 28, -82, 49, 56, 17, 101, 29, -85, 54, -18, 3, -88, -30, 40, 112, 74, -32, -25, 107, 106, -22, -24, -22, 98, -12, 50, 77, 106, -81, -80, 24, -60, 20, 20, 48, -78, 1, 36, 7, 12, -66, -71, -74, -85, 98, -15, 68, 89, -16, 22, 66, 44, 86, 87, -100, 59, 76, -41, -6, 66, 15, 6, 99, -67, -99, -54, 18, 19, 110, 67, 82, 27, 32, -55, 102, 71, -22, 67, 81, 35, 113, 113, 68, -87, 47, 9, 37, 14, 55, 89, -16, 15, -3, 20, -54, 111, -39, -95, 114, 54, 32, 0, 104, 3, -113, 110, 94, -73, -26, -90, -87, 24, 55, -26, -87, -97, -90, -41, -59, 102, -68, 24, 91, 22, 85, -83, 74, 46, -92, 50, 62, -33, -92, 67, 3, 19, 23, 49, 
  -93, 103, -102, -65, -88, -31, 31, 98, 107, 62, -65, -118, -51, 69, 58, -60, -111, 103, -107, 20, -112, -52, 26, 69, -22, 46, -17, -9, -34, -106, -31, -5, 35, -8, 90, 93, 53, 66, -27, 101, 12, 45, 52, -52, 100, -8, 48, -39, 81, -33, -58, 29, -1, -109, -94, 24, 23, -51, 44, 9, 56, -93, 78, -24, 71, -24, -111, -103, -79, -61, 101, 92, 47, -38, -67, 73, 78, 44, -50, -42, 95, 99, -18, 22, 40, -102, -21, 113, 79, -3, 12, -101, 104, -13, -19, -10, 3, -95, -75, -7, -19, 91, 3, -98, -46, -87, -52, -98, 31, 85, -27, 93, 12, -16, -113, 50, 54, 101, -49, -104, 46, 52, 109, -75, -101, -96, -34, -12, -113, -2, -37, -20, -77, 70, 79, 72, 57, 20, -88, -41, -15, -27, 32, 69, -105, -41, 46, -36, -72, -53, -46, -96, -44, -54, -111, 65, -7, -79, 105, -41, 9, 86, -9, -106, -67, 41, 101, -32, -83, -94, 21, -15, 92, -53, 10, 36, -100, -36, 55, -26, 24, 36, -23, -65, 41, 109, 107, 62, 10, -41, -111, 33, -56, 93, 105, -103, -115, -66, -90, 106, -8, 100, -7, 51, 88, -49, 101, -31, 6, 26, 51, 36, -18, -79, 3, -12, 8, -47, -116, -88, 26, -42, 5, 73, 16, -83, -62, -84, -112, -1, -62, -34, 55, 98, -49, 40, 85, -20, -106, -91, -40, 53, -106, -44, 93, -60, 96, 50, 109, -30, -68, 77, 36, 62, 53, 24, -15, -112, 26, -81, 48, 4, 32, -76, 84, 95, 1, -26, -7, -61, -110, 47, 15, -11, -3, -95, -21, -21, -120, -17, -44, 75, 81, -57, 9, -48, -34, -39, 2, -108, 55, -54, -69, 41, -9, 106, -101, -1, 14, -94, -94, 94, -98, 82, -62, 53, 42, -19, 102, -7, 96, 51, -52, -114, -22, 34, -104, -114, -91, 86, -83, 86, 15, -49, -106, -108, -51, -37, -96, 15, -23, 54, -47, 21, -28, -44, 105, 108, -97, -56, -58, 34, -2, 14, -33, 32, -101, -29, 19, 88, 41, 20, 9, 96, 43, -26, -28, -121, 92, -64, -64, 41, 16, -7, -12, -19, -97, -17, 44, 115, -5, 62, -108, 46, 51, -60, -82, -7, -59, -35, 105, -76, 67, 94, -58, 53, 109, -99, -100, 38, -12, -92, -45, -86, -57, -56, 78, 76, -59, 71, 38, 58, -11, 66, -36, 96, 40, 21, -108, -110, 111, -53, 53, -46, 47, -95, -57, 105, -12, 24, 58, 92, -109, 65, -8, -56, 7, 21, -91, 42, -16, 34, -32, 56, -117, 73, -105, -86, 22, 18, -44, 46, 73, 97, 82, -7, -49, -27, -26, 83, -12, -82, 12, -25, -56, 52, -94, -13, -39, -17, -76, -52, 38, 102, -117, -109, -35, 38, 57, 2, -7, -39, 52, -41, -73, 0, -46, 59, -49, -53, 73, -4, 25, -90, -87, -70, 49, -56, 47, -104, 68, 70, 80, -13, -112, 92, 58, 102, 51, -75, -47, -2, 63, 74, 106, 46, -45, -17, -27, -35, 97, 87, -94, -23, 96, -105, 43, -61, 78, 65, -12, 10, -55, 73, -2, 21, 30, -20, 37, -70, -86, -76, 32, 83, -41, -44, -79, -100, 10, 101, -93, -56, 1, -39, -52, 89, -58, 40, 52, 22, -40, -111, 54, -62, -95, -89, -9, 47, 21, -89, -92, -18, 63, -102, -5, 34, -115, 14, 80, 44, -94, 22, 91, -114, -84, 99, 107, 75, 36, 64, -26, 20, 102, -55, 74, 98, -94, -98, -5, 102, 11, 113, 107, -49, 17, -1, 30, -96, 47, 16, 
  -51, -47, -39, -62, -104, 98, 27, -96, 67, -99, -4, -94, -92, 40, -13, -61, 105, -51, -31, 76, 65, 55, 94, -88, 24, 99, 25, 35, 10, 113, 32, 81, -32, 78, -73, -51, 9, -9, 20, 97, 27, 65, -16, 64, 43, 108, 48, 98, 11, -63, 112, -41, -3, 44, 25, -9, 1, 47, -52, 48, -103, 56, 46, -75, 105, 34, 7, 6, 56, 52, 107, -14, 111, -1, 51, 66, 54, -85, 51, -86, 86, -52, -105, -14, -115, 41, 104, -65, -36, 73, 108, 47, 26, 33, -114, 101, 35, -30, 108, 8, -109, -62, 34, -20, 85, 81, 1, -46, -102, -51, -115, 108, -73, -79, -28, -18, -95, 91, -50, -44, -79, 114, -32, 81, 9, -111, -68, 65, 84, 96, -102, -51, -64, 108, 46, -90, 110, 72, -86, 47, 75, 80, 77, -46, 59, -14, 47, 62, -103, 31, 86, -10, 41, -15, 100, -79, 105, 100, -40, 41, -77, 63, -114, 68, -68, 4, -51, 52, -64, 27, 46, -68, 69, 38, 13, 66, 53, -3, -42, -101, 54, -89, 7, 65, 30, 93, 95, 74, 32, 57, 77, -6, -2, -77, 94, 105, 3, 106, -81, -17, -41, -46, 44, 101, -11, 64, 74, -4, -90, -89, -26, 114, -86, 35, 104, 110, -19, 2, -20, 26, 89, -4, -93, 35, -37, -96, 111, 82, -54, -50, -24, 98, -35, -89, -33, -50, 12, -15, 47, 4, -32, 39, 113, 32, -109, -16, 45, 16, 107, -47, 86, 88, 37, -91, 70, 63, 105, -63, -19, -106, 3, 78, -45, 100, 21, -4, -7, -113, 71, 100, -105, 91, -26, -42, -54, 3, 59, 24, 34, 80, 64, 83, -38, -42, 17, 21, -102, -2, -65, 91, -75, -78, -7, -22, -56, 108, -11, 66, 70, -51, -38, -106, -68, -60, 71, 99, 58, 37, -108, 10, -11, 107, -1, -32, 19, 26, -93, -9, 59, 88, -20, -114, -54, 110, 14, 31, -101, -43, 82, 19, -34, -31, 63, 94, -24, 101, 44, -17, -23, 34, -34, 40, 52, 79, 52, -47, -99, 99, 110, 60, -112, -59, 14, -79, -35, -46, 52, 18, 93, -106, 30, -15, 42, 75, -105, 88, -56, 50, 90, 115, -105, -77, -32, -31, -23, 60, 5, 111, -19, -23, 55, -112, 19, -31, -12, -37, -82, -18, -78, -33, 99, 105, -19, 53, 95, -104, -52, 103, -37, -15, 90, -82, -13, -101, 49, 104, -51, -26, -52, -24, 90, -74, 101, 33, -109, 37, -24, 110, -2, 60, 68, 35, 38, 14, 92, -40, -93, 61, 29, 32, -113, 80, 69, -43, -80, -115, -14, -34, 0, -56, 32, -61, 53, -51, 64, 61, -11, -41, 13, -5, 9, 80, 12, 17, 30, -15, 114, 90, -86, -68, -42, -79, 70, -7, 18, -67, 42, -43, -67, 86, 69, -91, 116, -46, 87, 81, -31, -102, -17, 10, 37, 44, 19, -7, -70, 3, -16, -55, 60, -8, 33, 101, 96, -52, 109, 24, 90, -60, -63, 109, -6, 35, -88, 104, -75, 40, 26, -61, -76, 106, 73, -79, -33, -9, -35, -74, 53, -28, -116, 104, -89, 83, -57, 107, 110, 65, -94, -23, -37, 86, -24, 65, 0, 100, 104, -65, -72, 84, -93, -106, 107, 42, 67, -47, -106, 112, 110, 80, 68, -96, 46, 2, -41, -67, 21, -110, 13, 36, 79, -111, -23, 35, 14, 82, -104, -113, 91, 98, -74, -8, -43, 92, 59, 84, 49, 62, -113, 21, 111, -75, -102, -21, -86, 39, -110, -43, 2, -115, 64, 13, -9, 53, 102, 112, 88, -99, -3, 9, -89, -42, 
  -81, -22, -90, -50, 28, 76, -20, 83, 23, 70, -85, 2, -54, -75, 0, -104, -93, -63, 36, -82, -56, 37, 19, -15, 39, -91, -63, -73, 66, -122, 65, 83, -56, -81, -25, -25, 99, -66, -72, 62, 111, 31, 73, 53, -44, 61, 47, 77, -110, -66, 62, 103, -81, -2, -15, -19, -21, 21, 32, 101, 20, -71, 82, 99, 74, -49, 92, -82, 106, -106, -46, -120, -54, -50, -60, -66, -116, -89, -38, 12, 58, -95, 76, 16, 68, -9, 84, 69, 81, -2, 56, 12, 31, 32, -65, -28, -42, 82, -4, -10, -94, 64, 54, 114, -113, 91, -23, -53, 15, -35, 78, -17, 99, -121, -5, -8, 60, -2, 90, 20, 48, 61, -5, -45, -37, -106, 20, 19, -93, -63, 97, 80, -21, -48, 41, 105, -76, -46, -10, 106, -98, 94, -102, -98, -73, -35, 69, -59, 19, -33, -5, 44, -105, -88, -113, -87, 76, 28, 104, 12, 108, -81, -56, 77, -12, 83, -2, 7, 83, -37, -112, 80, 99, 103, -104, 94, 49, 70, 120, -78, 41, -98, -9, 3, -49, 78, -80, 121, 18, 46, -85, -79, -99, -57, -90, 60, -71, -50, -27, -119, 84, -56, 60, -102, 4, 41, 16, -51, -92, -52, 32, 19, 94, -71, -5, 93, -53, 46, -46, 13, 103, -53, -27, 106, 64, -17, 51, 22, 39, 88, 25, -47, 44, 29, -5, -41, 13, 33, -24, -45, -50, 88, 99, 97, 71, -10, -17, -86, 76, 61, -34, 4, -45, 3, 34, -53, 36, 28, -25, -110, -107, 35, 75, -57, 99, -50, -60, 2, -108, -124, -46, 64, -67, -44, -110, -68, 100, -108, 32, -42, -84, 87, 7, -39, 71, -53, -17, -117, 105, -106, 16, -60, -8, 28, 36, -57, -102, 49, 54, 8, -26, -38, -120, 74, 90, -45, -112, -86, 50, 49, 111, -106, 35, -27, -32, 32, -101, -18, 3, 60, -4, -51, -15, 30, 84, 87, 95, -60, -26, -94, 90, -95, -36, 48, 56, 94, -41, -3, 3, -42, 57, 78, -108, 55, -67, -7, 118, -45, 51, 14, 95, -34, 14, -3, -103, 68, 102, -68, -51, 101, -111, -30, -38, 67, -104, -75, -108, -104, 74, 90, 52, -5, -2, -98, -43, -5, -55, 77, -98, -55, -28, 56, 14, 81, 43, 0, -8, 106, -53, 64, 13, -109, 1, -1, -101, 98, -10, -72, 65, 95, 39, -63, 13, 98, 5, 83, 55, 91, -53, -22, -56, -78, 73, 0, -8, 116, -56, 54, 44, -49, 58, 70, -55, -105, -92, -59, -64, -53, 0, -92, -59, 86, 33, 64, 16, -72, -113, 51, -54, 40, 43, -77, 32, -29, 6, -34, -73, 77, -32, -120, 91, 49, -69, 105, 66, -78, 48, 31, -26, -43, 56, 92, 106, 82, -52, -99, -4, -108, -34, 70, 39, -91, -18, -115, -24, -89, -80, 49, 15, -70, 6, -108, 69, -104, 96, -38, 94, 84, 59, -1, -62, -76, 24, -4, -85, -46, -77, 77, 95, -112, -16, -22, 97, 22, -84, -14, 98, -59, -95, -125, -31, -41, 18, -90, -90, -95, -49, 7, 37, 31, 39, 19, 62, 97, 89, -70, -105, -26, -111, -71, 73, -62, 71, -94, -11, 40, -92, 97, -61, -75, -91, -39, 21, 96, -74, -97, -99, -101, -66, -89, 78, -19, -90, 20, -67, 19, 10, -91, -17, -39, 36, -8, -122, -125, 27, -27, 65, -37, 1, -57, 64, 80, 0, -43, 71, -9, -15, -34, 25, -82, 20, 57, -110, -99, 33, -62, 59, -18, 51, -87, -125, -92, 8, -67, 81, 73, -68, -61, 64, -115, 
  -33, -33, -24, 39, -45, -63, -48, -6, 34, -11, 112, -25, 15, 69, 101, -26, 46, 17, 13, 73, 25, 72, -69, 29, 23, 28, 107, 115, 66, 35, -35, -85, 36, -100, -87, 58, -44, 13, 98, 6, 3, -12, 103, -49, -63, 65, -65, 12, -105, 66, 79, -63, -55, 104, 67, -63, -18, -84, 7, 26, 19, -5, 75, -64, 23, 96, 34, 18, 57, -60, -81, 19, 16, -65, 16, 21, 55, 81, 87, -42, -76, 54, -77, -25, -102, -49, 43, 95, 54, -50, -90, 24, 40, -37, 2, 91, 67, -47, -35, -37, 68, -103, -10, -93, -64, 51, -84, 1, -4, -65, 61, 94, 48, -78, 73, 19, 9, -11, 98, 71, -43, -1, -8, -29, 116, 59, 3, -28, 78, 65, -36, 103, 65, -48, 24, -59, -103, -105, 68, 5, -60, -5, 69, -83, 9, 17, 67, 8, -79, 51, 24, 59, 29, 0, 38, 9, 110, 105, -97, -12, 71, 96, -113, -97, 100, -36, -34, -93, 74, 100, 52, -5, -78, -77, 28, 56, -63, 51, 94, -96, 113, -70, 32, 55, 27, 76, -27, -106, 35, -18, -25, -86, 99, -41, 53, -45, -4, 77, 69, 86, 31, -85, 55, 71, -85, -80, -53, 114, -82, 0, 24, 102, 79, -97, 37, 49, 114, -2, 32, -40, -6, 13, 111, -100, -11, -8, -33, 18, -45, -9, -99, 79, -93, -57, 29, -40, 84, -21, 28, 80, 35, -44, 116, 33, 15, -23, -16, 60, 63, -90, 27, 44, 74, 62, -64, 62, 11, 49, 87, 1, -53, 37, 75, 57, -112, 35, 81, 52, 102, 38, 40, 7, -17, -97, 111, 70, -41, -33, -60, 81, 14, 52, 115, -45, -70, -35, -13, 23, 2, 112, -93, 107, 0, -101, -33, -35, 88, 42, 32, 12, 4, 25, -87, 61, 20, 8, -102, -49, -92, 111, 91, -26, 45, 6, -13, -99, -16, -48, 94, 105, -93, -44, -43, 4, 28, 90, 23, -37, -77, 102, -103, -115, -24, 47, 28, -71, -46, 42, 26, 52, -51, 75, 12, 6, -86, 45, -5, -37, 24, -45, -76, -68, 80, 75, -68, 33, 50, 76, -77, -49, -96, -54, 1, 41, 33, 96, -108, 24, 89, -97, 37, -81, 40, -89, -8, -16, -106, -69, 89, -100, 3, -29, -88, -55, 8, 30, 67, -15, 11, -56, 17, 35, -13, -87, -54, 63, -82, -102, 33, -82, 90, 27, -98, -112, 45, 64, 73, 103, 1, -77, -80, 68, -25, -110, 98, -30, 111, 1, -95, 68, -14, -43, 18, -23, -51, -104, -101, -98, 23, -79, -108, 82, 27, 9, -66, 0, -21, -31, 6, 43, 20, 18, 60, 30, -9, 22, 86, -67, -63, 41, -22, -113, -81, 82, 74, -88, -50, -7, -96, -57, 78, -93, 58, -112, 36, 3, 9, 60, -72, -85, -116, -12, 86, -32, -81, 71, -19, -32, 110, -42, -72, -29, -68, -92, -5, -34, -22, 34, -36, -5, 45, -90, -14, 20, 55, -28, -38, 112, -73, 40, -47, -114, 48, -14, 76, 55, -15, -1, -96, -55, 95, -96, 103, 99, 95, -70, -79, 63, 58, -84, 2, 48, 71, -90, 3, 30, 71, 107, -42, 85, -66, 37, 91, 13, 38, -107, -68, -79, 3, 69, 78, -31, 79, -100, -37, 112, 79, 99, 115, 10, -3, 62, -15, -98, 8, -34, -58, -64, -4, -105, -100, -66, 68, -16, 22, -93, -100, -21, -106, -24, 20, 35, 116, -17, -27, 1, -38, 37, -20, -17, 79, 23, 58, 18, -73, 4, 110, -57, 110, 95, -24, -96, 100, -106, 36, 71, -4, 39, 94, 61, 
  -77, -108, -87, 30, 16, -33, 29, 85, -111, 65, -88, 61, 54, 23, 6, 104, -1, 89, -45, -81, -14, 105, 59, 25, -23, 62, 23, -19, 80, 90, -66, -20, 96, 108, 31, 5, 28, -19, 5, -81, 3, -50, 74, 68, 45, -51, 37, -14, -69, -36, -17, 58, -6, 32, -12, 20, -48, -72, -54, -1, 87, -35, -71, 45, -39, 102, -39, -88, 95, 75, -40, -86, 2, 61, -38, 98, -99, 83, -70, 95, -1, -63, -116, 15, -2, 114, 112, -41, 50, 96, -46, 83, -42, 12, -18, 99, -37, 59, 22, 66, 27, -1, -24, 74, -41, 104, 46, 93, 60, -117, 35, 110, -113, 36, -31, -83, -69, 69, -114, -32, -69, -75, 6, 61, 111, 32, -20, -92, -79, -68, -108, -113, -89, -73, -98, 98, 74, -24, -86, 77, 101, -100, -101, -29, 118, 46, -100, -33, -53, 45, -114, -63, -104, 106, 83, -76, -21, 68, -14, -72, -110, -52, 57, -40, -16, 78, 40, 21, 113, -31, 111, 102, 83, -72, -107, 42, -67, 60, 86, 6, -105, -86, -66, 23, 41, 22, -52, -34, -77, -15, 45, 38, 37, 97, 58, 91, 98, -19, 111, 84, 29, 50, -18, 58, 62, -52, -47, 17, -90, -106, 24, 27, 5, -16, -20, -4, 64, 59, 16, -85, 11, -31, 39, -72, 107, -108, 44, 110, -21, 8, -67, 38, -13, 68, 26, 38, 27, 67, 109, 59, 116, -79, 100, -12, -44, -70, 63, 98, -98, 115, -63, 30, 18, 85, -90, -41, -85, 46, -58, 34, -78, -20, -99, -3, -94, -60, 10, 106, 34, -10, -5, -28, -10, 29, -112, -39, -65, -102, 4, -30, 76, -61, 54, 30, -53, -103, 40, -97, 90, 54, 21, -31, 40, 60, -91, -101, 90, -28, 67, 52, 91, -40, -37, 55, 12, -11, -2, 23, 104, -48, -73, 2, -100, -50, 59, -60, -113, 65, 83, -46, 38, -110, 18, -18, -71, 112, -25, -113, -21, -17, 88, 52, -103, 76, 105, 39, -20, 39, -85, -105, -7, 10, 5, -65, -18, 86, -106, 80, -39, -88, 94, 41, -86, 24, -61, 89, -34, 63, 79, 44, 78, -28, 77, 12, -23, 29, 45, 22, 63, 62, -11, 54, -78, -48, 60, -101, 89, 30, -36, -72, 54, 92, 72, 108, -20, 55, -23, 72, 70, -112, -54, -10, 46, -66, -103, 111, -9, -98, -53, -33, -54, 32, -56, -117, -12, -53, -83, -67, -55, 17, -71, 51, -81, 48, 47, 66, -78, -79, 17, -81, -32, -33, 40, -76, -72, 9, 113, 4, 52, 93, 16, 64, 34, 24, -54, -14, 90, -18, 29, 107, -16, -102, 71, -20, 55, 48, 54, 59, 85, -11, 25, -39, 16, 22, 59, -102, 40, -114, 113, -94, 74, -42, -7, -50, -58, 101, 101, 76, 29, 87, -31, -22, -104, -5, -23, 18, -20, 118, 5, 16, 68, -60, -50, 113, 30, 42, 35, 68, 60, -99, 82, 91, 18, -83, -7, 37, -34, 10, -67, 26, 59, 6, -53, 15, -10, -24, -34, 97, -71, -77, -20, -23, -109, 35, -38, -12, -100, -59, 25, -17, 57, 51, -79, -47, 47, 119, 100, 87, 61, -68, -114, -62, 36, -39, 62, -58, -70, 64, -30, 6, 104, 64, -38, 120, 28, -22, -73, 107, -103, -90, 26, -3, -68, -91, 8, 114, -92, -16, 109, 104, 75, -18, 69, 62, -95, -20, -61, 27, 49, -2, 109, -75, 11, -60, 34, -37, 16, 90, -47, 72, -104, -74, -15, -72, 62, -88, 89, 32, -39, -29, -48, -99, -54, 58, -74, 33, 54, 1, 7, 68, 
  21, -29, 70, 79, -31, -51, -42, -19, -58, 9, -50, -100, -49, 12, 12, 94, -74, -103, 43, 87, 25, 70, -42, 59, -22, -23, 65, -115, -30, -71, 34, -90, 81, 88, 91, -13, -110, -56, -1, -94, -69, 63, -54, -96, 62, 99, 13, 103, 41, 119, -104, -36, -83, -43, -6, -90, 114, -112, 66, 25, 65, 61, 5, 71, 96, 54, -65, 66, -49, -13, -85, 35, 77, -89, 40, 61, -43, 100, 81, -36, 3, -55, 35, 48, 28, 74, -80, -65, 64, -80, -16, 20, -62, 87, -45, 65, -63, 59, -57, -75, 80, -35, -6, -20, -41, -27, 112, -97, 86, -113, -48, -90, 76, -31, -10, 17, -62, -68, -95, -106, 7, 21, 33, -75, -59, 24, 1, -110, 99, -87, -94, 121, -111, 37, -4, -110, 21, -49, 94, 113, 110, 46, -82, 24, -98, 76, 73, 37, -38, 105, 4, 102, 57, 75, 27, 96, -92, 55, 30, -22, -5, 12, 31, 118, 0, -22, 94, 23, -6, -21, -44, -89, -35, 10, 11, 14, -68, 47, 32, -24, -75, 104, 54, -35, 44, -66, 93, 64, -92, 74, -40, 1, 34, 103, 84, -2, 106, 55, 13, -78, 28, -25, -12, -8, -50, -2, -57, 108, -109, -70, 60, 77, -24, -17, -44, -18, -37, -49, 113, -58, 43, 3, 112, -67, 108, -14, -15, -36, -73, 44, 54, 16, -12, -3, 52, -46, -44, 8, 7, -37, 22, 78, 67, 19, -42, -25, -55, 14, 42, -115, -26, -25, -94, -97, 25, 63, -86, 36, -108, -30, 47, -36, -42, 72, 31, -108, -82, -51, 100, -45, -112, -4, -29, 38, -103, 98, 55, 58, 68, -64, -4, -17, 48, 115, -66, 101, 94, 83, 8, 104, -82, -102, -7, -4, -30, -52, 58, -115, -43, -42, -70, 58, -68, -43, 48, -2, -30, -69, -3, -71, -63, -10, -69, 71, -107, 68, -61, -54, -65, 72, -71, -8, -53, 117, -57, -87, 23, 10, 49, 108, -7, 15, -7, -78, 77, -72, -92, 85, 104, 6, -51, -98, -11, 3, -52, 92, -63, 24, 114, 68, 104, -105, -16, -64, -108, -111, -101, -63, -55, 44, -34, -54, 0, -10, 27, -90, 85, 97, 66, -89, -39, 23, -99, -14, 119, -59, -30, 58, -77, 43, 38, -41, 6, -102, 80, 60, 76, 52, 87, 24, 9, 109, -4, 98, 0, -35, 61, 5, 27, 13, 72, -55, -64, 108, -65, 17, 20, 46, -59, 103, 22, 26, 9, -7, -67, 12, 110, -30, -24, 115, 79, -35, 100, 91, 60, -100, 107, -71, -31, 42, 19, 90, 72, -96, 110, -72, -14, -54, -54, 75, -13, 77, 110, -79, -28, -89, -44, 39, 59, 107, -4, 83, -79, -49, -92, 97, -11, -68, 100, 92, -66, 11, 62, -9, -69, 46, -3, 18, -4, -88, -50, 10, -79, 16, -80, -14, -103, 18, -102, 68, 105, -38, -46, 55, 96, -94, -38, 43, -31, -120, 62, -7, -88, -22, -59, 37, 17, -48, -15, 93, 55, -76, -28, 73, -109, 73, 52, -72, -6, 60, 5, -21, -101, -24, 14, -24, -92, 70, -93, 19, -62, 61, -98, -78, -76, -76, 107, -78, 77, -23, 102, 3, 61, -28, -107, 2, 14, 5, -41, -89, 108, 114, -82, 43, 72, 86, 94, -39, 69, -29, -73, 16, 69, -91, -4, 39, -79, 9, -56, -48, 89, 56, 95, 28, 40, -82, -109, 65, 64, 48, 87, 47, -106, -10, -43, 26, -86, 9, -51, -3, 0, -65, 97, 37, 1, -2, 108, -84, 10, 10, -95, -86, 1, 104, -77, 71, 110, -70, 38, 22, 
  -111, -14, -83, -9, 75, -83, -64, 30, 70, -93, -19, -43, 2, -58, 97, -86, -19, 51, 29, 2, -9, 9, 45, 55, 83, 29, 108, -57, 113, 80, -66, -47, 117, -21, -82, -59, 39, -24, 68, 28, 1, -24, 37, 16, -26, -82, 11, 31, -106, 9, 56, 69, -36, 18, 100, -87, -39, 88, -108, 109, -51, 32, 33, -17, -23, 116, -92, -114, 104, 111, 73, 111, -93, -46, 38, -95, -25, -59, -79, -68, 65, 22, 4, -42, 79, -69, -74, -101, 59, 94, 85, 34, -72, -79, 98, -39, -106, 77, -51, -64, 90, -28, -69, 75, 50, -66, -4, 45, -85, 33, 9, -47, 101, -68, -56, 15, 41, -116, 70, -39, -9, 57, 71, -4, -12, -53, -36, 73, 2, 78, -96, 28, 7, 50, -87, -88, 39, 72, 94, 95, -81, -97, 97, -1, 106, 54, -4, 111, 100, 10, -59, 60, -70, 15, -30, 37, -42, -107, 62, 30, 74, -18, -34, 65, 55, -44, -35, -78, 90, 76, -90, -49, 91, 10, -88, -78, -38, 84, 97, 26, -60, 9, -113, 8, 59, 97, 35, -2, -68, -76, 96, 11, 22, -88, -55, 64, -76, 72, -54, 73, 34, 15, -4, 10, -50, 51, -65, 40, -112, -93, -41, 52, -107, 68, -57, -68, -103, -34, 40, -5, -1, 103, -34, -90, 39, -71, -42, 53, 1, -16, -70, -78, -5, -1, -113, 58, 59, -11, 13, -77, 92, 55, 24, 57, -104, 14, 36, 56, -3, 27, 103, -40, 42, 0, 102, -88, -107, 45, 38, -107, -96, 35, -90, -21, 86, 1, -67, -18, -15, -3, -2, 107, -51, -17, -64, 96, -5, -105, -69, 35, 67, -38, -45, 39, 14, -37, -84, -98, -47, -84, 99, -45, 84, -43, -48, 61, -80, -97, -113, -112, -44, -27, -1, -48, 91, 25, 0, -28, -78, -108, -2, 98, 105, -58, -12, -65, -66, 115, 22, 77, -106, -84, 105, 40, -20, -65, 33, -46, -12, 69, 6, 114, -46, 11, 21, 81, -94, -90, -67, 43, -92, 103, -46, -30, -59, 40, 38, -83, -2, -13, 86, -45, -46, 89, -53, 50, 15, -22, 17, -48, -16, -25, 79, 85, 16, 19, -60, 12, -76, 94, 22, -113, 110, 98, 76, 100, 76, 97, -21, -24, 53, 71, -94, 109, 101, 5, 85, -28, -109, 29, -108, -75, -87, -29, -50, -97, -93, 83, -3, -28, -48, -66, -71, -79, 39, -8, 98, 52, 75, 108, 83, 105, 85, -12, 73, 26, 52, -41, 36, 106, 88, -66, 81, -11, 8, 78, 112, -25, 98, 84, 112, -31, -15, -107, -83, 108, -13, -25, -108, -103, -25, 48, -10, -106, -12, 99, 32, -74, -78, 77, -83, 87, -17, 96, -101, 95, -76, -106, 80, -21, -8, -105, -16, -23, -28, -106, -54, -2, -68, -54, -52, 43, 62, -41, -77, -80, -98, -69, 28, 59, 70, -51, -109, 32, -99, 92, 4, 51, -87, 86, 114, 108, -31, 116, -1, -39, 52, 97, 70, 107, -40, -76, -43, -7, 9, 6, -79, -45, 20, 57, -74, -87, 68, -45, -94, -67, 71, -80, -10, 1, -71, -52, -4, -9, 63, -62, 93, -2, 76, 58, -62, -33, -96, -45, 112, -67, -7, 71, 6, 33, -116, -86, -37, 77, 22, -36, 69, 102, -66, 76, -75, 16, -7, 60, 86, -87, 103, -44, -40, -109, 24, 40, 75, 87, -20, 101, -50, 26, -87, 63, -62, 14, -35, -24, -66, -93, 9, -47, 66, 79, 60, -31, 86, -102, 78, 86, -75, 83, 22, -21, 79, 27, -8, -63, 83, 87, 11, 63, -59, 46, 
  -38, -30, 74, -55, -48, 39, 23, -91, -82, -3, -56, 19, -78, -89, -65, 34, -95, 7, -108, 47, 71, 24, 39, 2, 105, -85, -22, -38, 25, 76, -21, -57, -45, 82, 10, 79, 39, -5, -75, 38, -11, 71, 98, -25, 64, -95, 54, -40, -95, 70, 35, -23, -16, 113, 62, 97, -52, -11, 12, 109, -36, -93, -104, 92, 17, 111, -106, -97, 17, -24, 31, 94, 19, -60, 104, 26, -118, 20, -85, -85, 88, -80, 40, -19, 8, -87, 62, -6, 30, -83, -103, 7, 110, 2, 66, -63, -101, -28, -106, -35, -69, -28, 104, -35, 76, 108, -1, 63, -39, 90, -103, 41, 88, -37, 47, 39, 48, 65, 87, 49, 58, 11, -4, 3, -75, -73, 62, 92, -91, 100, 86, -91, -116, 29, 80, -43, 29, 68, 56, 73, -8, 22, 118, 97, -79, 29, 30, -105, -103, -79, 56, -14, -72, 5, 56, -52, -102, 4, 86, -82, 71, -22, -44, -60, -82, 24, -77, -6, -13, -41, 13, -74, 1, -41, 28, 43, -78, 0, 66, 112, -110, 115, 111, 61, -26, -11, 82, -60, 37, -72, 84, 41, 25, -28, -55, 101, 29, -2, 93, -62, 17, -31, -13, -103, 89, 11, -100, -98, 85, 55, -50, 12, 45, 82, -81, 82, -8, -68, -67, -119, -97, -108, -51, -6, 95, -114, -94, -98, -43, -15, -56, 27, 119, 75, 88, 32, -98, 82, 84, -63, -44, 45, 69, -1, 5, -45, -87, 60, 12, -64, -75, 113, -13, -60, -33, -23, 82, -95, 3, -101, 39, -59, -103, 57, -93, -82, 99, 97, -41, 67, 115, -47, 32, -49, -21, -74, 108, 34, -68, 63, 69, 103, -28, 30, -67, -16, 4, -85, 66, -21, -3, 14, 32, 7, -23, -57, 58, 29, 106, -12, 1, -44, -2, 86, -25, 103, -18, 116, -94, 112, 47, 110, -2, -70, 54, 56, 76, 6, -45, -21, -57, 63, -86, -9, 1, -20, 44, 86, 61, 87, -46, -61, 119, -52, 51, -52, -11, 105, 108, 42, 44, 43, -52, -63, 70, -73, -98, 18, -97, -43, 5, 9, -31, 79, -58, 24, 43, -47, -78, 62, 77, -75, 106, -103, -107, 89, -39, 35, 37, -13, -90, -25, 12, -10, 67, -117, 118, -77, 0, 6, -82, -100, -68, -110, 81, -68, -21, -71, 108, -39, 55, 15, -87, 31, -41, -83, -84, -13, -108, -109, 93, -51, 10, -87, 76, 100, -18, -100, 55, 38, 94, 43, 10, 1, -85, -78, -91, 67, 115, -10, -107, 57, -104, -103, -14, 108, -66, -54, -96, 122, -19, -52, 83, -64, -71, 63, 74, 50, 80, -61, -11, 89, -11, 51, 70, -2, 110, 33, 84, 0, -96, -88, -8, -22, -10, 30, 2, 53, -23, 44, 6, -43, 55, 106, -84, 92, 39, 1, 68, 60, -35, 62, -77, 94, -78, -91, -62, -88, -63, -81, -29, 106, 100, -57, -105, -68, 3, 57, 94, -18, -111, -47, -15, -115, 28, 41, 75, 75, 118, 98, -7, 118, -15, -14, 79, 82, 103, 59, -81, 99, -57, 104, -110, 74, -2, -73, 18, 38, 53, 45, -7, -109, -31, 91, -41, 91, -96, 33, 98, 91, 95, -35, -72, 108, -64, -76, 44, -73, -9, -57, -83, -76, 81, -30, 12, 53, 80, 93, 93, -99, -39, -19, -54, -112, 81, -28, 56, -27, 43, 69, 81, 3, 38, 102, -34, -111, -43, -60, 59, -72, 34, -53, 15, 19, -21, 8, -110, -117, 27, 80, -10, -110, 93, 81, -73, 30, 1, 17, -20, 11, -75, -121, 10, 66, -71, 35, -102, 62, -93, 114, 
  58, 44, -19, 99, 21, -2, -15, -108, -64, 58, 34, -104, -122, 60, 92, -20, 99, -74, 109, 52, -55, 87, -37, -83, 114, 69, -15, 1, -25, -46, -37, 14, -38, 60, -29, 69, -33, 37, 71, -64, -100, -40, -84, 62, -65, -71, 40, 62, 100, 7, 106, -104, 28, -69, -15, 34, -73, -64, -60, -102, -101, 43, -44, 69, -60, -21, -71, 74, 29, -99, 12, 121, -8, 15, 79, 46, 56, -69, -1, 107, -21, -79, -34, 54, 96, -42, 11, 27, 1, -11, 28, -61, 35, 59, 104, -78, -55, -72, 16, -69, 104, 59, 114, 65, 17, -111, 11, -63, 20, -79, -94, 41, 97, -9, -103, -24, -73, -120, 53, -57, -78, -53, -99, 94, -111, -61, 64, -32, 103, 96, 48, 50, 112, 6, -66, 4, 27, -80, -108, -51, 72, -36, 56, 77, 103, -78, 89, 74, 86, -15, -8, 20, -58, 6, 21, -7, -103, 13, 53, 50, -2, -20, 79, 9, -30, -93, 59, 60, 50, 46, -99, 26, 14, 11, 25, -5, -89, 33, -28, 13, -57, 98, 62, -97, -62, 66, 91, -69, -30, 93, -38, 93, -105, -7, 94, 61, 53, 105, 9, 93, -107, 22, -61, 6, -88, -11, 51, -87, -62, 1, -35, 10, -18, 99, -52, -106, -86, -3, 19, -15, -19, 39, 9, 36, 43, -114, 87, -64, -84, -46, -11, 46, -53, 52, 60, 45, -103, 61, 84, -75, -59, 19, 42, -17, 20, -4, 27, -2, 3, -41, 56, 87, 8, -59, -82, -35, -59, 80, 89, 74, -61, 65, 58, -9, 61, 103, -17, 89, -17, 2, -14, 86, 50, -73, -105, 102, -5, 103, -27, -15, 73, 97, -91, -60, -101, 122, 118, 22, 9, 107, 18, 30, -101, -48, -3, 21, 84, 79, -54, 119, -117, 118, 112, 106, 3, -90, 70, 26, -103, 81, -96, 49, 76, 108, 121, 1, -52, 118, 35, -92, -94, 87, 84, 119, -67, -17, 112, 21, -59, 94, 31, 26, 39, 89, 45, 75, -101, 119, -26, 77, 47, 43, 40, 72, -74, -120, -96, 2, -5, -102, 119, 91, -100, 83, 60, 96, -57, -33, 81, 83, 66, -12, 119, 23, -53, -47, 54, 10, -95, -117, -81, 20, 105, -81, 41, 42, -43, -25, 16, -27, 15, -13, -50, -56, 67, 46, 121, -64, -37, -9, 77, 6, 49, -99, 10, -109, -64, 93, 79, -102, 3, 98, 4, 49, -105, 55, -54, -90, 54, 15, -96, 6, 2, 105, -54, 65, 42, -2, -43, -40, -110, 64, 41, 95, -22, -89, -77, -99, 71, 46, 39, 40, -43, 52, -17, -58, 74, 77, -61, 56, 72, -44, -53, 60, 2, -74, -27, 73, -8, -53, 89, 89, 113, 47, 55, 7, -118, -12, -19, 51, -91, 90, -58, 67, -43, -33, 45, 9, -86, -92, 48, 45, -89, -108, -41, 15, 60, 83, -43, -67, -20, 2, -100, -93, 37, 72, 25, 96, -9, 38, -19, -82, -63, -35, -22, -25, -60, 62, -75, 89, 31, -20, 69, 89, -96, -31, 64, -113, 34, -3, 43, -40, 12, 71, 46, -109, 48, -48, 18, 22, 81, 99, -39, 119, 35, -15, -41, 69, 12, 17, 99, -78, 66, -94, 49, -26, 54, -69, 121, -99, -34, 16, 75, 58, 104, 113, -43, -9, -47, 64, 3, 20, 88, -73, -43, -45, 74, 69, 102, 81, 102, -103, 5, -100, 41, 107, -22, 3, 69, 46, -58, 56, 60, -10, 36, 120, 106, 11, -36, -68, 59, 22, 107, -36, 115, 30, 36, -20, -70, 100, -4, -54, -37, 22, 44, 111, 61, -22, 50, -21, 
  -64, -73, -84, -105, -77, -4, 67, 3, -115, 100, 96, -5, -58, -93, -101, 97, -64, -115, 6, -80, 7, 77, 64, -30, -45, -96, 47, 56, 43, 2, -103, 7, 83, -57, 74, -94, 106, 20, 26, 110, -106, -2, -83, -83, 92, -89, -30, -99, 60, -115, -35, 114, -39, -19, 4, -68, -74, -116, -16, -20, -34, -117, -115, 22, 97, -15, -94, 9, 66, -69, -113, 56, 106, 51, -26, 50, 79, -70, 21, -86, -4, 33, -1, -82, 110, -66, 11, 15, 11, -85, 53, -58, 52, -113, -9, -1, 1, -81, -112, 19, 17, -105, -17, -23, 97, 22, -74, -25, 27, 26, -1, 34, -90, 108, 34, 35, -30, 92, -85, -75, -84, 93, 16, -12, 93, 5, -13, 56, -16, 32, -29, -39, -81, 106, -4, 113, -76, -47, -109, -32, 68, 2, -59, -32, 79, 60, 102, 1, -34, 2, 0, 100, -42, 63, -30, -72, 35, 14, -79, 13, 26, -64, 41, -81, 2, -6, -109, 65, 69, -32, -62, -10, -34, -78, 83, 55, -60, -12, 23, -56, -26, -58, -60, 42, -93, 44, 16, 107, 82, 119, -112, 38, -18, -39, 103, -41, -3, 42, -81, -90, 53, 87, -120, 78, 18, -86, -37, 44, -56, -74, 31, 31, 94, 75, -98, 16, -37, -106, -89, 38, 46, -70, 75, 63, 22, 103, 37, 89, 44, 87, 85, 36, 66, 35, -25, -4, -96, 106, 44, 70, -32, -122, 47, -70, -71, -1, 50, -71, -96, -110, -109, 32, -38, 53, 11, 78, -11, -17, 41, -69, -54, 116, -7, 111, -62, -16, -107, 57, -21, -99, -100, 18, -72, -88, 9, -93, -65, -95, -88, 16, 88, 101, -51, -56, 16, -46, 44, 40, -44, -1, -81, -41, 57, 44, -74, 67, 14, -45, 107, 99, 110, 94, 113, 74, -19, 43, 67, 95, 52, -50, -15, -55, -53, -108, 23, 8, -93, -86, 99, 8, 49, -6, -54, -71, 39, -72, -28, 87, 39, -67, -50, -23, -113, -61, 38, 41, -83, 85, -23, 23, 8, -49, 112, -7, 103, -10, 80, -87, -38, -62, 53, 79, -106, -20, 66, 10, -17, -50, -54, 34, 9, -84, 102, 61, -99, -91, 58, -9, -100, -22, 54, -79, 5, -47, 6, 106, -8, -83, 8, 119, -60, 60, 67, -41, 116, 95, -4, -44, 28, -51, -37, 54, -117, 97, -2, 79, -62, 61, -110, 94, -89, -110, 33, -111, -107, 74, 57, 58, 120, 28, 22, 13, -19, -74, -107, 63, 93, -4, -11, -29, 94, 51, 60, -107, 16, 14, -58, 13, 39, 12, -53, -4, 23, 27, 73, 10, 63, 46, -2, -15, 94, 65, 115, -115, -6, 5, -32, -106, 41, -87, -83, -81, 99, -93, 107, -44, 63, -44, -55, -102, 79, 82, -21, -60, -44, -83, 89, 54, 16, -83, -22, -13, -39, 93, -3, 87, -7, 46, -3, -21, -102, 103, -85, 59, 11, -26, -38, -22, 34, -35, -100, -42, -32, -9, -29, 71, -102, -68, 44, -9, 103, -91, -22, 22, -98, -104, 69, 93, 71, 25, 74, 31, -107, 51, -40, 57, 26, 2, -4, 38, 71, 27, -72, 76, 0, -45, 96, -107, -100, -26, -75, 57, -35, -63, -37, 56, 83, -92, 6, -107, 63, -30, 16, 84, -19, -105, -107, 4, 35, 43, 38, -26, -89, -6, -22, -74, -106, 21, -90, -88, -48, 99, -97, -26, -58, 29, -72, -91, -26, -47, -80, -37, 44, 45, 65, -12, 80, -30, 92, -103, -2, -85, 43, -104, -107, 24, 84, 97, 67, 43, 43, 66, -91, 36, 105, -6, 84, 24, 34, -11, 
  103, 61, 86, -39, -92, -98, -85, -61, -36, -82, -45, 13, -78, 53, 37, -83, 108, -61, -32, 95, 53, 98, 29, -46, 15, -3, -113, -11, 107, 77, 107, 111, 112, 36, 60, -86, 49, -79, -76, -98, 108, -62, 49, -4, 56, 80, -63, -12, -6, 92, 106, 63, -56, -105, 12, 18, -85, 61, -71, -80, -41, 32, -2, -79, 51, -70, 57, 93, 106, 113, -12, 1, -55, 30, -8, 34, 98, 90, 67, 27, 52, 3, -19, 79, -20, 104, -58, -23, 40, 107, 74, 104, 52, -22, 85, -3, 39, 61, -45, 7, -109, 39, -102, -61, 26, 44, -92, 22, 97, -86, -77, -18, -104, -63, 6, 13, -29, -22, -22, 81, -4, -29, 40, 104, 67, 54, 70, 29, 22, -87, -2, -102, 52, 100, -6, -113, 23, -94, 77, 55, -17, 88, -37, 7, 105, 101, -21, 43, -23, -72, -86, 12, 17, 19, -12, -60, -40, -73, -24, 30, -111, -19, -55, 28, 102, -63, -115, -12, 76, 97, 4, -45, 91, 75, 90, 40, -92, -115, -78, -86, -65, -101, 111, -112, 6, 62, 53, -35, 21, 33, -8, -45, -69, 65, -43, 109, -94, 115, 116, 8, 49, 62, -68, 51, 14, 81, 1, 78, 20, 8, 10, 108, 98, 26, 59, 82, 51, 62, -8, 31, 107, 101, 28, -37, 55, -10, -49, 95, 112, 86, -48, -11, 1, -115, -34, 78, 62, 89, -32, -39, 4, 102, 96, 31, 78, 107, -111, -107, 19, -14, 38, 48, -34, -33, 15, 38, -90, -95, 58, -35, 68, 76, -46, 31, -98, -20, -9, -70, -83, 72, -113, -47, -22, 25, 46, -20, 93, -28, -105, 37, 27, -89, -3, -5, 29, -32, -43, -88, -13, -98, -107, -36, 18, 63, 62, -15, 25, 67, 63, 72, -20, 4, 107, 29, 112, 32, -72, -30, -36, 45, 29, 100, 76, 59, 56, -25, -2, -87, -91, -68, -30, 110, 64, -67, -42, -43, 53, -78, -13, 37, 55, 95, 35, 37, -37, 111, -73, -104, -85, 86, 9, -87, -18, -32, -22, -38, 20, -26, 32, -93, 43, -81, 77, -13, 50, 61, 62, -58, 28, 28, -23, -86, 6, -42, -115, -46, 59, 57, 31, 54, 108, -72, -77, -52, 13, 48, 1, 107, 26, -44, 57, -90, 85, -16, -67, 40, 99, 86, 7, 31, 75, -104, -113, -34, 93, 99, 90, 88, 8, 62, -81, -60, 19, -17, -108, 21, 36, -3, 51, 18, -50, 36, -46, -66, 25, 78, 67, -94, -89, 75, -104, 51, -110, -7, 35, 54, -61, -23, -69, -58, -88, 70, 84, -35, 95, -61, 27, 109, 24, 35, 105, 54, 92, 11, -29, -47, -13, -9, -79, -81, 67, 97, 74, -45, -15, 108, 30, 46, -54, 110, -7, 32, 58, 96, 18, 45, -90, 33, 104, 59, 21, 69, 9, 28, -76, -75, 63, 68, 50, -35, -67, 77, -71, 4, -43, -65, -74, -43, 77, -30, 88, 81, -76, 103, -4, -92, -95, 6, 27, 109, 41, -88, -85, -23, 68, 97, 67, -83, 107, -63, 67, 61, -13, -8, -91, -11, 6, 46, 82, 75, -57, 113, -73, -77, -45, -103, 11, 16, 95, 5, -55, 15, 65, 75, 72, 61, 48, -24, -37, 3, -50, -79, -109, -18, -84, 32, 60, -113, 41, 111, 17, 24, 58, -103, -27, -58, -46, 94, -91, -7, -106, -82, -35, 68, -65, 8, 99, -81, 6, 0, 47, -71, 110, -108, 107, 63, 42, 105, 115, -102, 86, 61, -90, 51, -44, 86, -72, -38, -66, 59, 8, -94, -110, -21, -71, -88, 12, -73, 111, 43, 
  106, 0, -9, 81, 84, 30, -55, -44, -55, -48, 71, 9, -96, -119, 22, 48, 66, 67, 11, -40, 61, 119, -6, -119, 16, -6, -90, -81, -94, -16, -82, -76, -118, 14, 8, 52, 97, -115, -120, -94, 72, 104, 26, 77, 24, 84, 60, -113, -42, -12, -103, 45, -8, 107, 15, -23, 74, 4, -47, 82, 8, 0, -64, -81, 99, -62, 120, 5, 42, 61, -59, 49, 98, 8, 36, 46, -66, 18, 63, -57, 95, 82, -15, 12, -91, 15, 19, 30, -32, -67, 20, -69, -54, 114, -108, 44, -99, -31, -49, -47, 80, -80, 52, -41, -5, -56, 90, 90, 22, 78, -106, 20, -58, 84, -56, 73, 103, 9, -87, 35, -23, -97, -4, -2, 46, 52, 25, -32, 47, -65, -34, -25, 81, 91, 62, 2, 82, -37, 49, 108, -76, -68, 115, -64, 87, 19, 67, 121, -60, 80, 59, -98, -9, 16, -73, 58, -62, -53, -65, -56, 66, -81, -17, 9, 40, -85, 98, -59, 84, 49, 108, -5, -99, -89, -54, -97, -92, -84, 91, 79, -23, -83, 15, -95, 73, -63, -32, 72, -58, -78, -62, 9, 109, 0, -76, 50, -97, -65, 114, 9, 9, 73, -40, -50, -35, -99, 107, 76, -100, 57, -77, 3, -89, 10, -44, -60, 107, 14, 46, -54, 3, -30, -35, 14, -71, -28, 4, -115, 63, 85, 18, -93, -61, -28, -104, -59, -82, 44, -19, 96, 4, 86, 31, 66, -41, 94, -46, -76, -74, -105, 96, -64, 43, -82, -58, -6, -22, -64, 114, -36, -47, 89, -111, 41, 54, 108, 8, 102, 20, 87, 68, 107, 50, -44, -39, 44, -21, -7, -14, 18, -49, 79, 122, 42, -57, -48, -57, -3, -74, 62, 75, 101, 100, 56, -15, 9, 109, -95, 106, 84, 62, 93, -9, -42, -25, -82, -67, -27, 68, -38, 53, -63, -8, -59, -107, 61, 98, 97, 73, 7, 111, -101, 88, 2, -23, 25, 16, -55, -94, 21, -10, 70, 17, 42, -115, 25, 102, -24, 56, -100, 72, -103, 35, 50, -104, 122, -2, -117, 101, -46, -55, 34, 37, -9, -92, 56, 32, -43, 59, -113, 84, -21, 3, 7, 84, 101, 109, -15, -108, -12, -2, 7, 53, 16, 39, 7, 12, -58, 90, 75, -12, 61, 7, 32, 101, 69, 41, 14, 49, 40, -70, 9, -13, 83, 70, -113, 85, -18, -43, 76, 17, 86, 12, -10, 34, -72, -98, 26, 90, -42, 0, 125, 26, -7, -15, 7, 55, 115, 43, -60, 104, -15, 13, -27, 40, -67, -65, -47, 98, -69, 70, 64, -89, 37, 4, 33, -109, 7, -7, 85, 7, 111, 54, 90, 65, -53, 59, 123, 75, 74, -78, 20, 23, 3, 85, 29, -15, 93, -18, -86, 48, -117, -104, -71, 85, -18, 5, -46, -35, -109, 54, 42, 99, -9, -57, -7, 104, -86, -36, -102, -67, -21, -102, 41, -56, -79, 42, -34, -9, 87, 67, 10, 74, -7, 101, -9, 23, -50, 100, 34, 39, 22, -78, 53, 67, -108, -19, 89, -37, 55, -8, 52, -55, 111, -6, -34, 113, -62, 86, -97, 98, 60, 43, -87, -27, 59, 20, -67, 126, 87, 53, -53, -20, 87, 32, -31, -57, 42, -6, 100, 13, -18, 111, 107, 60, 104, 125, -36, 2, -26, -30, -22, 66, -74, 74, 77, 34, 17, -68, 66, -16, 76, 17, -22, 42, 1, -116, 41, -28, -19, 84, -3, -104, 47, 44, -12, 23, -77, 58, 18, 116, -72, -15, 15, 99, 8, 22, -49, 46, 82, -80, -43, 72, 17, 95, 3, 81, 82, 35, -80, 
  40, -97, 51, 39, -36, 105, -14, -87, -7, 26, 110, 24, 83, 55, -15, -50, 108, -88, -27, -6, 8, -51, 88, -29, -11, -92, 69, -63, -41, -86, -89, -32, -101, 33, 58, 112, -25, -10, -70, 108, -48, 64, 75, 26, 34, 6, -25, 61, -117, 83, -4, -26, -111, -86, -46, 45, -56, -90, -102, 109, 33, 41, 0, -3, -53, 107, 45, 10, -98, -53, -26, 27, 0, -57, -6, 60, 7, 76, 40, 2, -26, -31, 100, 95, 95, 64, 88, 14, -97, 79, 29, 77, 81, 48, 92, -3, 29, 85, 110, 95, -87, -91, -63, -85, 112, 55, -38, 101, 19, 83, -22, 37, 116, -81, 75, -56, -30, 77, 30, -13, -40, 112, 39, -75, 47, 9, -66, -10, 86, 40, -91, -43, 56, 95, -89, 49, 59, -70, -13, 66, 84, -30, -53, -56, 43, 43, -93, 74, -35, -43, 42, -70, -17, -49, -11, -28, -100, -76, 73, 87, -9, -65, 31, -19, 71, -89, 10, -30, -104, -67, 68, 4, 58, 19, -88, 100, -107, 8, 119, -42, -114, -99, -111, -34, 59, -111, -51, -46, -90, 36, -34, -18, -70, -35, -91, 34, -82, -101, -48, -55, 57, -60, -23, 89, -102, 93, -100, 37, -12, 17, 103, -48, 21, 7, 49, 88, 17, 25, -31, -35, 25, 17, 99, -69, 26, -120, 101, 35, 15, -57, 42, -77, 34, -88, -18, 15, 19, 73, -18, -33, -74, 52, 85, 20, 64, -91, 3, 5, 96, 65, 82, -53, 39, 22, -78, -72, -52, -106, -1, -107, 37, 64, -51, 102, -113, 70, -91, -27, -17, -92, 76, 49, 3, 25, 81, -60, -18, -76, 59, -22, 108, 87, -6, 7, 12, -33, -70, -108, 20, 115, 1, -118, 22, 1, -35, -98, 39, -103, -44, 114, 105, 99, 55, -6, 47, -58, -75, -10, -73, -1, -49, 64, -14, -31, 32, 112, 73, -79, 62, 89, -101, 56, -5, -5, 3, 115, 54, 34, -102, -18, 84, -87, 30, -100, -84, 110, 105, -75, 52, -64, 115, 45, -86, -62, 66, 61, -6, 67, 71, -10, -98, -101, 58, 28, 62, -113, 11, 101, 112, 107, 95, -109, -33, 27, -29, 28, -100, 118, 0, 20, -17, 10, -117, -22, -85, -92, -26, 13, -50, -104, 113, -67, -100, -67, 7, -27, -50, 36, -69, 113, 75, -1, 15, -25, -25, 42, -16, 19, -58, -14, 97, 109, -101, 3, 54, -15, -9, -47, 35, 104, -22, -113, 20, -73, 99, -21, -77, 102, 67, -94, 63, -105, 54, 80, -28, -64, -104, -102, -16, -73, -72, -17, -26, 71, -40, -19, 79, 104, 19, -71, -28, 79, -44, 87, 35, -109, -36, -35, -22, 31, 111, -31, -40, 12, 55, -67, -92, 79, -99, 74, -68, -68, -80, 1, -29, 3, 59, 46, 25, -25, 56, 29, -60, -34, -23, -81, 7, -44, -59, 112, 87, -23, -21, -109, 57, 5, 11, 20, 120, 99, -60, 111, -50, 1, -35, 20, 92, -9, 40, 75, -96, 114, -93, -54, -54, 3, -60, -98, 76, 4, 90, -90, 84, -77, 72, 32, 18, -4, -8, -75, 19, 118, 99, 90, 41, 81, 115, 5, -120, 97, 63, -86, 15, -74, 96, -30, 49, -118, 41, -32, -31, -76, -14, -50, -67, -103, 14, -21, 75, 31, 39, -39, 67, -33, -4, 49, 30, 53, 101, 101, 24, 5, 13, -78, -105, 56, -23, -32, -86, 87, 74, -107, 26, -85, -91, -63, 52, -89, 65, -104, 34, 30, 37, -9, 47, 110, 96, -4, 57, 15, 0, 37, 72, 2, -46, 93, -13, 8, -44, -6, 
  25, 83, 58, 23, -13, 99, 42, -7, -59, -60, -97, -74, -13, -76, 61, 36, -64, -51, 31, 115, 99, -43, 3, -103, -77, -112, 36, 57, 89, -13, 69, -94, -91, -7, -71, 25, 109, -31, 116, -46, -25, 21, -47, 72, 25, 21, -55, -93, 48, 18, -88, -74, 6, -103, -57, 66, -64, -12, -88, 6, 83, 39, -4, -31, 77, 89, 101, -3, 61, 107, -68, -9, 4, -115, 36, -38, -61, 3, -83, -40, -64, 115, 26, 76, 72, 32, 88, 90, -53, 104, 33, -2, 12, -8, 10, -92, 107, -98, -62, 93, -80, -112, 99, -41, -32, 67, 35, 117, -81, -9, -38, -41, 104, -5, 13, 90, 78, 110, 30, -47, 60, 92, -26, 19, 117, 115, -69, -58, 114, 76, -17, 101, -106, 50, -9, -97, -92, 48, -11, 43, -61, 55, -111, -21, -78, -70, 109, 99, 5, -110, 28, 42, -4, -68, 107, -96, -23, -92, 73, -101, -1, 42, 43, 90, 82, 56, 34, 68, 37, -91, -84, 1, -49, -61, -96, 72, 101, -78, -32, -108, -24, 105, 56, 46, -36, 10, -27, 69, 7, -113, 11, -64, 34, -99, -5, 56, -111, -45, 113, 82, -92, -22, -112, 54, 100, -80, 84, 64, 38, 27, -29, 30, -30, 46, 91, -29, -14, -44, -46, -120, 16, 57, -3, -110, -49, -25, -23, -50, -87, -76, -71, -25, 83, -71, -53, 55, 105, 51, 7, 72, 46, -103, 115, -58, 112, 65, 43, 30, -82, -98, -59, -75, -25, 0, -3, -53, 7, -32, 100, 33, -53, -19, -22, -96, -95, -26, -99, -51, 37, -15, -96, 20, 73, -61, -10, -104, 99, 38, 116, 86, -24, -72, 56, 108, 46, -16, -29, -53, -77, 112, 20, 90, 114, 105, -23, -57, 88, 61, -77, 15, 80, -12, 23, 35, 109, -14, 61, 7, 99, -71, 75, 115, 14, -121, 94, -79, -75, 48, 103, -33, 76, 27, -61, -55, 15, 30, -98, 13, -47, -40, 63, 47, -69, 52, -68, 105, -30, -46, -16, -54, 46, -7, -11, -2, -111, 80, 27, 46, 61, -20, -39, -89, 58, -20, 77, 109, -74, -57, -19, -37, -21, -97, 32, -41, 21, 104, 103, -63, -93, -118, -94, -39, 11, -63, 90, -88, -65, 79, -101, 38, -19, 12, -83, 22, -46, -46, -100, 79, -78, -45, -56, 31, 114, 82, -63, 72, -60, -85, 41, 101, 49, -14, 105, 36, 35, 31, 39, 112, 97, -51, 38, 91, -114, -66, 87, -33, -7, -69, -94, -113, -102, 27, -66, -1, -89, -63, 48, 102, 81, 82, -101, -63, 9, 106, -35, 68, 97, -16, -75, -25, 61, -84, -16, -89, 95, 100, -69, -79, 39, -54, -98, -42, 13, 40, -94, -90, 83, 1, -2, -51, 109, 1, 40, 8, 8, 53, 102, 71, -37, -14, 65, -21, -88, -9, -73, -47, 112, 40, -103, -58, -53, -11, 39, -92, 55, 19, -39, 67, -47, -76, 91, 107, 72, 106, -28, 86, 59, -57, -106, -107, 102, 88, -105, 83, 39, -65, 18, -35, 99, -110, -101, -53, 99, 93, 78, 11, 47, -78, -11, 41, -73, -53, -85, -91, 86, -23, -53, 60, -34, -6, -62, -40, -57, 5, -29, -12, -101, 23, 1, 45, -36, 57, -21, -21, 107, -76, 19, -58, 101, -29, -39, -100, -39, -44, 6, 17, 64, 88, -114, -100, 5, -8, -54, -81, 3, 57, -3, -117, 49, -15, 20, 28, 31, 86, 86, -68, 63, 102, 50, 24, -76, -92, 99, 53, -24, -21, -98, 66, -52, 86, -52, -21, 109, 47, 113, 104, 40, 91, -99, 9, 
  -98, 96, -65, 68, 63, -60, 92, 25, 101, 59, -115, -92, -14, 39, 109, 71, -78, 72, 50, -15, -46, -44, 113, -25, 4, 5, -120, -113, -93, 46, 19, -31, 11, 43, -44, 14, -17, -23, -61, -3, 14, 109, 72, 69, -44, 70, 101, 109, 38, 78, -104, 59, -60, 41, 116, -91, -116, 76, -80, -32, -38, 36, -84, -107, 110, -48, 47, -64, -48, -105, 107, 52, -98, -68, -3, -58, -68, 53, 119, -61, -14, -99, -8, 121, -62, -56, -92, -49, -83, -29, -35, -11, -36, -73, -30, 15, -51, 70, -62, -68, -21, -79, -76, -80, 27, 18, 0, -90, -43, -41, 40, -4, -108, -101, -82, 59, -93, -59, -122, -48, 1, -21, 84, -102, -90, -64, 30, -60, 78, -40, -76, 8, -105, -60, 44, 37, 13, -110, -37, -8, 16, 102, 100, -2, -76, 102, 74, -106, -39, 109, -21, -20, 94, 111, -27, 36, -17, 22, -98, -53, -15, 48, 119, -4, 24, 116, 61, -114, 37, 56, -102, -5, -52, -92, -77, -39, -98, 19, 75, -55, -6, 25, -44, 109, 70, -36, 112, -6, -70, 103, -60, -104, 95, 35, 19, -110, -75, -14, 70, -7, 101, -53, 39, -97, 16, -45, -6, 70, -91, 40, -27, -51, 32, -65, -41, 68, -57, -117, 102, -3, -59, 113, 83, 12, -6, -32, -108, 53, -29, -25, 69, 10, -54, 53, 86, 46, -85, 40, 4, -53, 85, 53, 102, -10, -84, -55, -45, -103, 86, -55, -101, 116, 11, 89, 105, -76, 20, -101, 43, -52, 47, 63, -24, -116, 2, -110, -53, -65, -118, 70, -42, 76, 1, 73, 72, -11, -110, -104, -89, 98, -81, -7, -32, 77, -83, 99, -36, 56, -28, -70, 59, 16, -89, -105, 53, 81, 63, -17, 36, 106, -19, 49, 6, -75, -26, -57, 68, -3, 95, 3, -59, 89, -18, 9, 15, 6, -30, 80, 79, 50, -17, -42, 33, 44, 116, -39, 36, 88, 37, 105, -25, -32, -16, 58, 23, -61, -72, -117, 20, 12, 98, -59, 41, -46, -1, 28, 79, -37, -17, 25, -101, -75, -118, -114, 8, -18, 62, 73, -105, -8, 72, -47, -72, -60, -17, -69, -82, 105, 33, 13, -89, -47, 60, 76, -25, 56, 14, -2, 1, 15, 103, 97, 12, -95, 75, 107, 91, 28, 31, 88, 36, 65, -72, -30, 20, -35, 11, -92, 17, -35, -38, -73, -82, -110, -61, -48, 59, 34, 84, 37, -3, 33, 4, -44, -39, -60, -78, -80, 87, -67, 110, 29, 20, -35, -27, 83, 40, -4, 105, 49, -97, -66, 97, -32, 50, -84, 76, -46, 61, 24, 104, 21, 63, -106, -95, 11, -23, 26, -106, 91, -64, -16, -60, -30, 75, -86, -79, 75, 23, 75, -70, -97, -90, -50, 24, 18, 74, 14, -67, -109, -20, -85, -22, -52, 84, -61, 1, -35, 82, 69, 64, -14, -68, -20, -73, 108, -20, 109, -78, -78, 0, 22, -109, -62, 13, 73, -11, -79, 3, -33, -19, 123, 46, 67, 22, 37, -9, 110, 63, -35, -41, -62, 114, -7, -112, -65, -72, 60, -29, -1, -22, 15, -30, 5, 16, 12, -50, 2, -68, -95, 104, 43, -114, 101, 80, 58, 83, -15, 96, 109, 23, -95, 10, 57, -109, 59, 39, 39, 112, -63, 42, -89, 27, -52, -79, -40, 1, 27, -69, -57, -75, -5, 31, -38, 107, 1, -58, -103, 97, -77, 38, 55, -102, 63, -54, -63, -67, 80, 22, 100, 91, 86, 87, 119, -72, 95, 9, 63, 75, 30, -43, 83, -66, 7, 12, 104, -36, -16, 28, 39, 
  66, -60, -34, -29, 31, 75, 89, -73, 63, -64, 87, -68, -30, -85, 55, 81, 93, -48, 57, 58, -2, -85, 38, 52, 80, -63, -108, -38, 97, -72, -109, -69, 35, 72, -92, 110, -84, 60, -107, -116, -101, 71, -50, 56, -29, 68, 33, 18, 66, 48, 12, -84, 34, -23, 39, -10, 67, 40, 63, 25, 11, -89, 85, -18, 103, -98, -93, 111, -71, 101, -46, 62, -108, -20, -90, 30, -81, -83, 48, 113, 74, 85, 57, -22, 14, -24, -107, -104, -76, -41, 27, -16, 7, 22, -10, -107, -44, -14, -57, -47, 7, 110, -65, -56, 29, 23, 22, -91, -46, 23, -63, -36, 54, 51, -107, 38, 27, -82, 22, 109, -25, -105, 113, 104, -32, -112, -63, 106, -97, 44, 97, 97, -53, 55, -92, -53, 26, 119, -79, 46, -61, -14, -69, -8, 103, -93, 114, 25, 52, -30, -54, -91, 117, -95, 86, 37, -64, -66, 25, -111, -94, -76, 59, -93, 86, -17, -98, -94, 49, -59, -43, -20, 106, -2, 25, -25, -95, -78, 23, 78, 45, 32, -90, 31, -2, 67, -76, -111, 90, 25, 35, -71, -25, 111, 8, 95, -39, 119, 59, -45, -18, -92, -50, 27, 43, 5, 1, -113, 11, -61, -28, 44, 113, 11, 99, 98, 88, 61, -15, -115, 52, 90, -98, 76, 23, -91, 94, -84, 58, 71, -41, -37, -105, 76, 76, 55, -84, -76, -39, 103, -41, 59, 100, 102, 114, 37, 79, 25, -48, 25, 76, 62, -52, 110, -104, 45, -103, 31, -42, 119, -54, -79, 16, -15, -110, 9, -32, -51, -69, -92, -77, 26, -99, -12, -93, 102, -35, 62, 82, -64, 69, -56, -20, 52, -70, 70, 53, 97, -28, 23, -55, 0, -48, 66, 44, 50, -55, -55, 77, 62, 66, -33, 34, 11, -35, 80, 90, -65, -61, 23, 99, -72, -23, -59, -109, 81, -102, 97, -70, -87, 104, 22, -34, -58, 5, 72, -32, -90, 89, 64, 36, -53, 59, -100, -68, 71, 88, -90, -71, 94, 68, -74, -106, -81, -37, -56, 91, 72, -75, -69, -8, -12, -46, 80, -40, -77, -94, -19, 24, 57, -80, 27, -30, -71, -61, 45, -56, 20, 106, 10, -61, -32, 72, -50, 57, -36, -58, 29, -39, -72, 12, -101, -95, 109, 92, -82, -107, -32, 35, 53, 73, -15, 94, -51, 106, -88, -99, 6, -108, 94, 77, 105, 106, -24, 89, -1, 71, 65, -16, -78, -18, -24, -67, 33, -37, 88, -40, -112, -30, 6, 98, -2, -99, -2, -15, 75, -4, 118, -31, 46, -33, -34, 110, -111, -12, -90, 2, 91, -27, 46, -93, -54, 111, -27, 58, -104, 110, -60, 30, 118, -75, 89, -78, -57, 107, 89, 99, 12, -44, 88, 21, 79, 66, 80, 12, -30, 53, -46, 20, -58, -25, 57, 24, -11, -117, -80, 107, 44, 33, 94, 59, 32, 73, -25, 75, 105, -101, -87, -89, 42, 66, -110, -79, 63, 74, -105, 105, 85, 91, -31, 79, -18, 46, -68, 55, 109, -12, 94, -78, -73, -20, -34, 93, -29, -97, -18, -66, 68, 61, -108, -104, 84, 33, 6, -88, -64, -66, -62, -53, 107, -104, 4, 61, -16, 77, -89, 1, -9, 39, 24, 74, -97, 23, -50, 16, 13, -88, 10, -5, -111, 20, 19, -68, 67, 82, 20, 54, 76, -82, -1, -84, -112, -52, 104, -38, -114, 0, -72, 16, 107, -18, 54, -97, -37, 81, -93, -60, -9, -83, 69, -18, 40, -78, 87, 5, -112, -13, 67, 30, -109, -1, 65, -106, -108, -21, -54, -88, 9, -109, 1, 
  81, -119, 50, 81, -23, 75, 99, 43, -16, -98, -15, -7, -59, -83, -63, 51, -14, 94, 56, 77, 98, 23, 85, 33, -36, -94, -33, -116, 32, -77, -49, 49, -2, -54, 81, 89, -43, -20, 32, -65, 20, 5, -2, 97, 107, -22, -64, -35, -74, 2, -110, -31, 86, -41, 29, -50, 29, 102, -24, 27, 7, 86, -60, 57, 69, 89, 49, -109, -45, -23, 32, 55, 73, -77, -90, -100, -89, 19, 14, 90, -54, -74, 67, -26, -52, 13, 108, 79, 26, -8, 83, 107, -80, 25, -3, 43, -19, -107, 77, 18, -28, 66, -99, 90, 82, 87, -75, 95, -36, 49, -38, -74, -57, -55, 91, 60, 63, -99, 16, -92, 17, 23, -9, -77, 12, -106, 28, 67, -59, 59, 108, -61, -99, 38, 78, -117, 3, 55, 7, 41, 25, 42, 51, 109, 45, -5, -3, 28, -40, -90, -14, 84, 81, 17, -114, 16, -23, -95, 26, -43, -102, -83, -111, 5, 45, -24, -119, -40, 4, -12, 16, -16, -116, -112, 61, -5, -71, -116, 56, 56, 7, -14, 44, -108, 87, -79, -53, 38, 6, -27, -86, 101, 62, 98, 105, -82, -90, -94, -19, 3, 63, -95, 39, 19, 79, -86, -41, 92, -29, 59, 62, -45, 101, 51, -53, 24, 94, -54, -101, -30, -97, -50, -54, -110, 113, 58, -57, 96, 80, 26, -93, 89, 77, 96, -1, 106, 34, 15, 103, -101, -52, -115, 3, -105, -73, -97, 89, 70, 106, -91, 8, -28, -9, 52, -12, -39, 90, -28, -115, 112, 115, 63, -63, 109, 12, -105, 53, -8, -83, 37, -98, 115, 41, -116, 43, -32, 10, -20, -103, -12, 110, 75, -96, 29, 32, -66, 90, 67, -33, -7, -71, 11, 16, -69, 15, 85, -106, 100, -21, -98, 15, -82, -49, 51, 33, -21, 3, 39, 67, 63, 17, -4, 11, 43, -18, 104, 39, -108, -12, 80, 41, 48, 21, -102, 51, 88, -27, 106, 95, -4, -112, 44, 41, 65, 24, -90, 73, 39, -12, -2, -10, 41, 30, 74, 77, -108, 36, 118, -66, 105, 60, 34, -66, -3, 6, 80, -106, 111, 33, -110, 42, 42, -53, 61, 40, 83, 25, 103, 29, -9, 8, -62, 52, -59, 15, -19, -29, 103, -63, 72, -18, 119, 63, -56, -24, 40, -19, -25, 51, -7, 25, -41, 109, 34, -108, -100, -100, 66, -20, -58, -34, 113, 24, -82, -41, 63, 116, 26, -116, 40, -29, -70, 108, 109, -85, 41, -34, -101, 22, -6, -57, -111, 63, -16, 70, 109, -99, 75, 112, -14, -22, -62, 7, 62, 75, -41, 25, -3, 66, 118, 110, 81, -97, 66, -32, -68, 63, 29, 52, -52, 58, -105, -16, 88, -52, -26, 50, -39, -57, 108, 16, -42, -69, -41, -44, 29, -109, 67, 39, -99, -12, -31, -108, -11, 87, -106, -75, 52, 83, -105, 59, 26, -24, 42, 45, -83, 11, -59, -44, -109, -19, 77, -111, -64, 91, -47, 7, 1, -33, 16, 84, 47, -30, -3, 97, -1, 24, 84, -84, 30, 47, 6, -27, -110, 107, 98, 69, 81, 92, 45, -44, 54, -40, 69, 13, -109, -102, 14, 52, -82, 5, -55, -55, 92, 117, 88, 112, -15, 16, 27, 11, -10, -33, 95, -50, 21, 95, 28, 107, -19, 20, 54, 80, -20, 24, -77, 11, 100, -102, -69, 91, 88, 24, 10, -44, 8, -47, 67, 19, 42, 86, 13, -70, -81, -89, -2, 75, 117, 72, 88, 46, 9, 36, 92, 60, -74, 50, -74, 71, 67, -77, -104, -30, 119, 44, 2, 64, 111, -60, -111, 
  32, 5, -43, -53, -56, 77, 53, 28, -61, 26, -49, -89, -85, 44, -17, -93, -111, 119, -73, 4, 14, -96, -58, -96, -83, 9, -46, 5, 41, -78, 121, 18, -29, 51, 96, -43, -81, 104, 83, 28, -13, 106, 63, 72, -102, -106, -54, 61, 113, -5, 11, -89, 30, -93, -55, -2, 7, 54, -75, 17, 23, -88, 92, -37, -101, -102, -35, -4, 12, 84, -110, -85, 102, -41, -17, 61, 43, -63, 68, 51, 59, -110, -12, 61, 72, 66, 48, 107, 90, -99, 13, 85, 60, 68, 48, -24, 33, 9, -93, -78, 19, 46, 100, -53, 11, 58, -20, -30, -85, -34, 111, 10, 11, 119, 14, 23, 40, -60, -66, 3, 36, -78, -16, -64, -93, 61, -106, 109, -39, 9, -9, -102, 1, -3, 64, -55, -113, -86, 65, 111, -5, -37, -27, -16, 49, 79, 97, 78, -12, -15, -59, -87, 92, -74, 59, -105, -100, -83, -24, -61, -74, -25, 25, 25, 81, 83, 86, -45, -61, 7, 58, -35, 28, -69, 38, -92, -27, 1, 28, 15, 63, -79, -16, 87, 86, -5, 47, 54, -99, 108, 68, 106, 70, -38, -93, 26, -85, -81, 29, -2, -52, 15, -85, -107, 50, 55, 24, -116, 74, -2, -22, -49, 57, -60, -46, 23, 118, -60, -31, 2, -14, 27, 105, -72, 44, 96, -79, 1, 1, -101, -14, 15, 53, -37, -87, -17, -86, 121, 64, -62, 4, 24, -46, 1, 94, -62, -10, -3, -39, 49, -13, 119, 15, -52, 2, 43, -18, 76, 97, 107, -88, 50, 97, 90, 55, 29, 50, 9, 8, 109, -51, 9, 18, -8, -41, -75, -56, -53, -44, 42, 100, 28, -88, 102, 109, -10, 76, -106, -74, -90, 72, 62, 23, -111, 59, -120, 118, 26, 65, -47, -5, 10, -12, 110, 79, -32, 111, -114, -32, 115, -32, 45, -85, 44, 21, -85, 61, -55, -89, -39, -94, -26, -86, 41, 70, -94, -76, 120, -107, -15, -43, 15, 85, 117, -86, 79, -85, 6, -43, -71, -84, -101, 78, 97, -102, 68, -11, -98, 74, -28, 11, 119, 13, -94, -4, -59, 59, -61, -92, -8, 4, -118, -22, -104, -121, -19, 12, -98, 98, 30, 18, 8, 38, 26, -67, 89, -76, 97, -107, -29, 61, -119, -59, 77, -117, 59, -89, 0, 62, 58, 61, -93, 43, 110, 83, 62, 51, 104, 3, 79, -14, 79, -11, -63, -55, 20, 94, 77, 88, 99, -104, 27, -102, -86, 35, -10, 119, 18, -63, 110, -45, 51, -99, 65, -45, 55, 89, 81, -92, 92, 95, -12, 12, -37, 42, 45, -62, -106, -69, -108, 56, -91, 21, -97, 115, 59, 103, 69, 47, -105, -39, 20, 51, -39, 72, -85, -8, -74, 100, -24, -37, -59, -78, -35, -49, 17, -6, 68, 88, 67, -44, -103, 113, -27, 28, 0, 9, -47, -70, -17, 81, 101, 9, -57, 58, 64, -59, -18, 19, -101, 6, -97, 10, -98, 68, 7, -80, 52, 76, 114, -63, -1, -37, -87, 25, -40, 62, -65, -91, -69, 15, 71, -79, -85, 40, 33, -2, 64, 39, 50, -78, 28, 90, -5, 4, -95, 51, 109, 95, 88, -5, 118, -30, -50, -19, -34, -62, 66, 63, 31, -76, 93, 118, 75, -36, 55, 44, 92, 109, 50, -28, 8, 104, -66, 72, -1, -7, -66, -4, -20, -58, 7, 15, -78, 103, 37, 95, 55, -16, -76, -97, -101, -11, -28, -51, -90, -38, -58, 70, 109, -74, 21, 66, -95, 70, 91, -41, 106, -19, -56, -17, -72, -32, -66, -13, 63, -10, -94, 86, 84, 
  -116, -14, 21, 92, -83, 10, 60, -17, 66, 95, 79, -32, 39, 25, -65, 15, 89, -67, -6, -8, -46, -59, 7, 77, 37, 100, -97, -81, 65, 19, -90, -107, 18, 13, -68, 26, 95, 111, -46, -33, -76, -95, 34, 98, -82, -12, 45, -20, 60, 28, -41, 20, 103, -98, 6, -79, -36, 32, 102, 111, 41, 100, 114, 43, 74, -103, -76, 23, -42, 12, 41, 24, -53, -94, 25, -99, -7, -62, -98, -80, 94, 114, -72, 28, -106, -62, 76, -27, 61, 49, -67, -39, -80, 83, 38, -95, 44, -44, 86, 10, 21, 49, -83, -76, -52, 3, 0, -96, 73, -36, 8, 102, -63, 47, -53, 73, -67, -13, 104, -96, 87, -56, -114, 57, -22, 104, -96, -30, 70, -82, -36, -10, 80, -35, -7, -100, -94, -12, 22, 74, 41, 31, -82, -28, 69, -44, -95, -44, -8, -50, -17, 62, 100, -87, 43, 30, -26, -97, 40, 58, -107, 99, -27, -64, 92, 79, 85, -101, -36, -14, 86, -98, 49, -65, 66, 87, -92, -112, 41, -56, -52, -2, -113, -66, 52, 29, -106, -52, 21, -38, -81, -97, -58, 14, 89, 67, -80, -56, -67, -12, -54, 8, 39, -43, 56, 16, 84, -26, 80, 28, -109, 79, -54, 62, -54, -36, -100, 88, 116, -60, 97, 80, 70, -42, -26, -3, 49, -103, 84, -62, -66, 66, 5, -23, 82, 46, -12, 69, 5, 11, 71, -98, -62, -98, 109, -96, -103, -83, -72, -59, -82, -38, -113, -52, -58, 13, 31, -32, -49, 59, 61, 20, -44, 64, 44, -28, 49, -29, -40, -44, -39, -13, -94, 33, -35, 79, 85, 24, 48, 74, -76, -19, -1, 17, -8, 96, -88, -9, 22, 38, -89, 103, 51, 19, -78, -64, 109, 4, -112, -22, 83, 0, 0, -58, -5, 112, -43, -113, -44, -103, -112, 21, -14, -64, 94, -34, -113, -85, 111, 24, 93, -120, -81, 111, -52, -2, -65, -30, -13, -31, 115, 63, 88, -55, -68, -113, -98, -31, -11, 9, 58, 87, -49, 87, 15, 6, 76, -52, 9, -91, 37, 54, 24, 54, 80, 19, -52, 59, 78, -104, -97, -62, 71, 13, -82, 101, -24, -67, -34, -105, 66, -115, 30, -33, -16, -35, 31, -75, -12, 43, 85, 73, 59, 101, -46, -86, 32, -4, 27, -49, 70, 90, -67, -65, 12, 1, 36, 112, -44, 47, -102, -71, -83, -105, -62, 70, -59, 88, -97, -98, -82, -82, -102, 29, 116, 47, 38, 19, -60, -107, 52, -97, -39, 67, 41, -85, 47, -97, 89, 100, 52, -62, -72, -59, -62, 4, -47, 97, 43, 24, -33, 4, 93, 28, -64, 69, 33, -17, 0, -48, -51, 47, 82, -112, 41, -104, -53, 84, -75, 80, -104, 105, -63, -47, 91, -100, 111, 99, 24, -3, 106, -32, -108, -90, 37, 92, 73, -14, -55, -41, 34, -20, 94, -110, 57, 60, 22, 91, 77, -105, 84, -95, -59, -9, 3, 35, 64, 4, 77, -49, -55, 11, -38, 67, 90, -92, 41, -72, 46, 35, 109, -47, 85, -3, 103, -12, -111, 68, 24, -40, 20, 86, -48, -56, -40, -94, -47, 108, -7, -56, 73, 5, -64, 91, -31, -101, 84, -105, -77, 50, 36, -65, 52, -40, -117, 68, -109, -80, 36, 80, -28, 35, 69, -114, 7, -41, 51, 110, 42, -28, -12, -116, 4, 92, 42, -74, 31, -15, -30, 1, 41, -70, -80, -59, 53, -33, -99, 104, 8, -50, 61, -73, -20, -59, 108, -76, -62, -43, -47, 10, -91, 47, 47, 73, -2, -105, 72, -112, -42, -12, 
